0,1,2,3,4,5,6,7,8,9,10,11,12,13,14,15,16,17,18,19,20,21,22,23,24,25,26,27,28,29,30,31,32,33,34,35,36,37,38,39,40,41,42,43,44,45,46,47,48,49,50,51,52,53,54,55,56,57,58,59,60,61,62,63,64,65,66,67,68,69,70,71,72,73,74,75,76,77,78,79,80,81,82,83,84,85,86,87,88,89,90,91,92,93,94,95,96,97,98,99,100,101,102,103,104,105,106,107,108,109,110,111,112,113,114,115,116,117,118,119,120,121,122,123,124,125,126,127,128,129,130,131,132,133,134,135,136,137,138,139,140,141,142,143,144,145,146,147,148,149,150,151,152,153,154,155,156,157,158,159,160,161,162,163,164,165,166,167,168,169,170,171,172,173,174,175,176,177,178,179,180,181,182,183,184,185,186,187,188,189,190,191,192,193,194,195,196,197,198,199,200,201,202,203,204,205,206,207,208,209,210,211,212,213,214,215,216,217,218,219,220,221,222,223,224,225,226,227,228,229,230,231,232,233,234,235,236,237,238,239,240,241,242,243,244,245,246,247,248,249,250,251,252,253,254,255,256,257,258,259,260,261,262,263,264,265,266,267,268,269,270,271,272,273,274,275,276,277,278,279,280,281,282,283,284,285,286,287,288,289,290,291,292,293,294,295,296,297,298,299,300,301,302,303,304,305,306,307,308,309,310,311,312,313,314,315,316,317,318,319,320,321,322,323,324,325,326,327,328,329,330,331,332,333,334,335,336,337,338,339,340,341,342,343,344,345,346,347,348,349,350,351,352,353,354,355,356,357,358,359,360,361,362,363,364,365,366,367,368,369,370,371,372,373,374,375,376,377,378,379,380,381,382,383,384,385,386,387,388,389,390,391,392,393,394,395,396,397,398,399,400,401,402,403,404,405,406,407,408,409,410,411,412,413,414,415,416,417,418,419,420,421,422,423,424,425,426,427,428,429,430,431,432,433,434,435,436,437,438,439,440,441,442,443,444,445,446,447,448,449,450,451,452,453,454,455,456,457,458,459,460,461,462,463,464,465,466,467,468,469,470,471,472,473,474,475,476,477,478,479,480,481,482,483,484,485,486,487,488,489,490,491,492,493,494,495,496,497,498,499,500,501,502,503,504,505,506,507,508,509,510,511,512,513,514,515,516,517,518,519,520,521,522,523,524,525,526,527,528,529,530,531,532,533,534,535,536,537,538,539,540,541,542,543,544,545,546,547,548,549,550,551,552,553,554,555,556,557,558,559,560,561,562,563,564,565,566,567,568,569,570,571,572,573,574,575,576,577,578,579,580,581,582,583,584,585,586,587,588,589,590,591,592,593,594,595,596,597,598,599,600,601,602,603,604,605,606,607,608,609,610,611,612,613,614,615,616,617,618,619,620,621,622,623,624,625,626,627,628,629,630,631,632,633,634,635,636,637,638,639,640,641,642,643,644,645,646,647,648,649,650,651,652,653,654,655,656,657,658,659,660,661,662,663,664,665,666,667,668,669,670,671,672,673,674,675,676,677,678,679,680,681,682,683,684,685,686,687,688,689,690,691,692,693,694,695,696,697,698,699,700,701,702,703,704,705,706,707,708,709,710,711,712,713,714,715,716,717,718,719,720,721,722,723,724,725,726,727,728,729,730,731,732,733,734,735,736,737,738,739,740,741,742,743,744,745,746,747,748,749,750,751,752,753,754,755,756,757,758,759,760,761,762,763,764,765,766,767,768,769,770,771,772,773,774,775,776,777,778,779,780,781,782,783
0.0,0.0,0.0,0.0,0.0,0.0,0.0,0.0,0.0,0.0,0.0,0.0,-1.4677471441259393e-05,-8.745244170408452e-05,-6.155372118423769e-05,-2.564738382676576e-06,0.0,0.0,0.0,0.0,0.0,0.0,0.0,0.0,0.0,0.0,0.0,0.0,0.0,0.0,0.0,0.0,-2.051413580284194e-06,-6.0260273920848446e-06,-1.629041368757347e-05,-0.00010128860684399397,-0.00034655017796171,-0.00062097617095998,-0.002852995917150087,-0.004764869141669984,-0.0033839066110331823,-0.001350995230496364,-0.003040185536950258,-0.008857884508920062,-0.013320432220298765,-0.0071166074778491305,-0.0030306245449212743,-0.0016690400258842159,-0.0008162830137926388,-0.00019838109081912113,-3.8753328431085455e-05,-1.3501673010303755e-06,0.0,0.0,0.0,0.0,0.0,0.0,-8.235229599772996e-06,-0.002042727873901046,-1.81503651038845e-05,-0.0007562633765591402,-0.009524763456296763,-0.016869819707139518,-0.059704779872616645,-0.07847329403044792,-0.040879194227316076,-0.22471918606145785,-0.46259060489490217,-0.41415899598721456,-0.3991900666390872,-0.3764328781690121,-0.3192423874978652,-0.24396285190740127,-0.14968677366945493,-0.1166693589282905,-0.09283084546760496,-0.040313144273322055,-0.01448469679158677,-0.006146664257005718,-0.00034867357861799594,-3.698542789648798e-05,0.0,0.0,0.0,0.0,-2.237569565373355e-05,-0.017840851198186382,-0.049627444428860565,-0.2930539841372563,-0.31876710352382476,-0.289202293194978,0.06886835978215171,-0.20407977099455793,0.005359125626683536,0.24480289290157362,-0.19663241098568704,0.5158647011129674,0.7291236848654268,0.07090792351483924,0.4508050797274113,0.3041510024331658,-0.2636843865129266,-0.34380024709154045,-0.22449849068282776,-0.519740050997969,-0.2516967434665875,-0.03374335061749832,-0.033328685794011596,-0.016293746208579516,-0.0037490210805584813,0.0,0.0,-3.973548412116783e-06,-7.372137787580914e-05,-0.003126332043635129,-0.03891349304955619,-0.40766626912321735,-0.3371188438261874,0.1931669493627726,0.19354829381729138,0.37454757714547166,0.09246203021892485,0.5033850175187236,-0.2031404704683534,0.5132522631250933,-0.05955282207397844,0.4661152436950579,-0.1425156439891292,0.34595217871639267,-0.15224047855818038,0.33573561781717826,0.19023676302394493,-0.3545791796862871,0.05557210795877211,-0.12840359047176914,-0.361560515972743,-0.15121991459112452,-0.024590813036748954,-8.134652495067036e-06,0.0,0.0,-0.003432091402261327,-0.028983191950866346,-0.11307292066258406,-0.7142910859693439,0.11670303723417842,0.03979413640505671,0.23940547468870002,0.17866801733306248,0.3677308431464156,0.19448717515250188,-0.3915068045012987,0.2696839421269482,0.22293728125080425,-0.16588590529030592,0.006480165216027902,0.5360667134139381,0.4529347796585263,0.2359025045850765,-0.21445202786006232,-0.03400515304726628,0.24556260184349074,-0.41284333426980263,-0.422827510090089,-0.3711070490106625,-0.10834615893066002,-0.053670121688654225,0.0,-1.6105848936009512e-05,-0.000876047501408785,-0.009514907283905832,-0.26452719342198383,-0.27034061727954356,-0.023623051922192582,0.04369830906841261,0.03620456768895085,-0.8297931935095442,0.07173528195681136,-0.2174253997020879,-0.19290136164083463,0.5530432604699533,0.47367904457174964,0.03022842167234738,0.48978614608464727,-0.16030630434255536,0.07623649795166304,-0.22479142199990335,0.33843239004140724,0.6647538361085787,0.9017679512407286,-0.24087800795516828,-0.4068958248938091,-0.8209117116800668,-0.44775860017018637,-0.137074719321596,-3.984743125780993e-06,-0.0006447729079704067,-0.011014541630345898,-0.02313589101593013,-0.30324524704022704,-0.09244246332224369,0.4186053759911327,0.0035288281300341587,-0.8412664849368232,0.40371018373511836,0.0970025448398581,0.3597022936201599,-0.18147612139458769,0.06284358980899919,0.07815962031821364,-0.3464562801211096,-0.45655645593372246,0.7310177871344279,0.4208185131282425,0.20115389330776873,-0.061907012464435064,-0.49162609197259055,-0.23218853845024023,0.5316087632623536,0.08620470100945404,-0.6392648390397385,-0.4421477873536083,-0.026207392019266987,-1.6193317809024905e-05,-0.0010011750122152648,0.016127307867554414,0.11344496741824565,-0.305267801717385,-0.19974684784405383,0.402804929143045,0.03472603153239926,0.3475248734820439,0.22007144832702072,-0.3056074633337156,-0.2927414351338141,0.73401881564829,-0.4957906920325155,0.8873984241605901,0.3350815267825074,0.9232511693715779,0.43023296738354216,0.10882108752087452,-0.1896763659357656,0.29308555081897064,0.2800830876274394,0.32908652160665824,0.8853661421691938,0.3006446079528061,-0.9451446823541104,-0.4923629657799746,-0.026654895105853622,-4.121337989423939e-05,-0.000885844706923615,0.057160987993287754,0.3199191648937065,-0.054536295041520806,-0.24074098383143996,-0.34192584154393063,0.014398691356390297,-0.36418391903382574,0.034132294941330014,0.7828528462681785,0.029282173817355636,-0.5164932435541794,0.9305789779511556,-0.45294754288554073,-0.5550937353544223,0.009867574938729492,0.20133585356680012,0.09817280882818133,0.8045734441238395,0.37142296929295393,-0.10788916581192576,-0.7499752484148271,0.42033087957383564,1.1027698000207835,-0.6461935830220641,-0.44095163211046223,-0.006015468534242618,-5.825670328512515e-05,-0.000958081456146497,0.26433529811914525,0.2787813419345813,0.10801243165624128,0.41683812771284573,-0.09108291292018653,-0.24015088360830408,-0.22620717182369723,0.19960594592892605,-0.5219599295724647,0.488072637822949,-0.15141193149300655,0.2575263834038056,0.5378791215897134,0.14004212992989734,0.4596104231994999,0.7654867954849127,0.24945406025644762,-0.4341448464915966,-0.018018507975743715,-0.04425909958790667,0.46212169834937916,0.7094629933184362,1.1765403645789394,-0.5084615893080072,-0.4564725897936428,-0.0006564304424427909,-4.7874746969392023e-05,0.06363527062092732,-0.004209702071069858,0.2122661191251286,-0.3858251040223321,-0.44244095490738905,0.18671413494388062,0.1369612839653555,0.33208029812557294,-0.5023475288800568,-0.22883337671576565,0.24987511943081034,-0.6473261244695824,-0.5348155533610925,-0.44932834506852515,-1.1377583131978766,-0.824559358010389,0.24674713081309493,-0.6202968801988896,0.31159789770150714,0.3730369412365017,0.9437250123189922,0.3474056377455838,0.08754156522753405,0.35989735382456933,-0.2967155419101011,-0.4452324371482868,-0.0006047313326358152,-2.436663323717781e-05,3.1797024473819734e-05,-0.0023963423266228734,0.0708251431401307,0.007933558553768238,-0.2788762472316647,0.5190101085769554,-0.30774649332132437,-0.3407488084415472,-0.05942632510349723,-0.2712665722150341,0.07452609098995146,0.2298892668875863,0.4967359434292531,-0.5146524821416548,-1.0360727780779981,-0.701905807080243,-0.006871790301914709,-0.1324499566568479,0.344669195472066,0.13699118263603352,-0.12171450526846643,0.08822197793689775,0.8095436973968813,1.179895409447319,-0.10365005141839632,-0.4464849695601078,-0.004079549660686962,-2.693950453383911e-06,0.0018605501327564487,-0.0001735413388810384,0.000566814997748778,0.6409861699269046,-0.20281489383557005,0.8909570404708966,0.005851148104350675,0.5334329242442489,-0.05046082439691461,0.7805921204361973,-0.3718353793864036,0.5351108987243154,-1.2416598973980355,-0.9556528490369892,-0.7687336060179409,-0.48757342388738795,-0.3493770629552347,-0.022561971898349378,-0.09465058682846685,-0.5949636205578471,-0.19634817287373216,0.1813486575552309,0.46337863097478355,0.8667733034145224,0.5397422700088171,-0.14396609578825853,-0.03362153963480671,-8.148728560905092e-05,-0.00016073031445860213,-0.0023440215815264745,-0.5739498110950171,-0.2529679434479175,0.7171301675526539,0.13594150982834619,0.8550182897900316,-0.20639317998706397,0.3984027810720889,-0.21183248727707263,-0.10782212576384016,0.7719781653672757,0.022397893212203118,-1.4008174097823565,-0.13337632091579169,-1.2499663473919829,-0.0553591389773109,-0.10915340863162977,-0.33493360424558727,0.333750009941905,0.3012217165483009,-0.12182637769290107,0.29461143881414453,1.0363445454194335,0.521911695492227,-0.08180675923194311,-0.0013258177026089044,-2.853116617646728e-05,-0.00011863773268060339,-0.0031979338595345785,-0.5439294131925129,0.3169742856443172,0.595979107725421,-0.8461309456121489,0.7349542210388516,0.5286840547158166,0.1879417504171023,0.7413802851554749,-0.3713840158166922,0.056662066519303514,-0.3662203135084262,-1.679215927621479,-0.8351094905835819,-0.4078010798636514,-0.5685524706124587,0.12631846027574792,-0.4127774004673932,0.5801656981215207,-0.14910283777250177,0.2277775908884272,0.7570909894845028,1.065756983105466,0.22128489953818067,-0.12031476642226843,-0.00819689272212622,-1.0568506215216845e-05,-8.178074134980069e-05,-0.009431568995607369,-0.29112136922961107,0.2717904798474222,0.3822694820098236,0.3122482494303083,0.22546800651824198,0.4864706101006749,0.26021939599909916,0.19618624795138795,0.3650232821145882,-0.5920271823895201,-1.1463152778897852,-0.5216824706805081,-0.0909150113597852,-0.333008263345184,0.14781386957272485,0.22323559495050205,0.14793198211091746,0.1337088765187421,0.38680809271748084,0.2585477154748363,-0.28710767944880333,-0.047805557396345254,-0.11079100826738215,-0.06962204159597657,0.002457808111140784,0.0,-4.492520827581267e-05,-0.07087233941793566,-0.0762393053645819,0.3826624307448554,0.5351164833195402,0.27373876409967707,0.44806889700957914,-0.35287301889207123,0.2964627314805332,0.5699846071826036,0.25892544319828836,0.11410798256819699,-0.8559236790528035,-0.41738609579401287,-1.0006382624954409,-0.17900389565050226,0.47481520613662137,-0.060382457510011436,0.16235477282227878,0.5242514523063032,-0.2733816278165775,0.015761662589665635,0.04217308578055846,0.08992785926332754,0.06761346105248184,-0.02842752041413606,0.19371336273021703,-4.527342606056209e-06,-3.430321601038364e-05,-0.053435273572161844,-0.2308240667168359,0.28303082441951627,-0.06871237136708168,-0.18762246671990268,-0.16200592445353015,0.650934004256615,0.6449893980297271,0.5503643033116734,-0.31683414538867005,-0.1930631921891298,-0.9322965587003349,-0.16274044240091834,-0.0019546459461667505,0.3888322088361912,-0.24840058137744936,-0.02927340023467763,-0.16008275877053185,-0.28218793298557804,-0.21099293373314945,0.4996158913399999,0.02458687356566332,0.11898325176924987,-0.1290380098513941,-0.03945411673790479,-0.026122028087242368,-1.1717353452671575e-06,0.04198573009011059,0.005421693249777962,-0.1822234086680939,0.18415212244621515,0.17128558015076165,0.4262479056116496,0.37025832571075035,-0.031500098099192186,-0.06706275897873464,-0.07771712119563133,0.4560178974765763,0.856679461057755,-0.4961844360654803,-0.44760652654148536,-0.34694234917560196,-0.4369432708157228,0.13113672283376326,0.011318494793903643,-0.39533632014662856,-0.11751175559837457,0.33463728164080797,0.9208861233949772,-0.022788814417866822,0.44903177693496915,-0.14339412141203822,-0.04084014089752511,-0.005871998559983482,0.0,0.10584937152933789,0.05225405163197571,0.007799589833422119,0.29951146938042555,0.6437769405930355,-0.3006448825322517,0.28045268668959983,0.5172159680195548,-0.05776825568357134,0.7112514947015418,0.39192052879966177,0.640696906822695,0.20324670364684638,-0.04544387893741348,0.2292852307925795,-0.878593471300314,0.311415773266229,0.3730739010652982,0.00495172304026543,-0.18663574059879767,0.09213339634226324,0.24954946289878652,-0.24829312594562333,-0.10858992732815533,-0.1285317606286914,-0.004699266316340228,-1.3643873898063217e-05,-2.476267362122829e-06,-0.0002163502445483233,0.0054698679227389215,0.27231307060881915,0.07857460551541787,0.2323070076228633,0.012644137515832305,0.13364884774343577,-0.2557796850454102,-0.05981112325763827,0.1922184445917191,0.16323834764467315,0.6880525325616987,-0.04217589571325334,-0.07680786306404151,-0.02176477099405952,-0.045248168285896936,-0.45491693744079137,-0.332485054390123,-0.29809799764470807,-0.4357968394525456,-0.28793381917105726,0.06478228877937393,-0.09312878500800428,-0.25434402458574334,-0.0733323971456555,0.18638727532828658,5.9877597832251215e-05,-2.398884007056506e-06,-7.875453338107434e-06,-0.004739587365222047,-0.031255010356539624,-0.43876969408854916,0.21578409171484558,0.013714013684295779,-0.17232532597375083,0.37974534418329353,0.02353574858385357,0.49325366255445496,0.023088733823393014,0.09564400545797366,1.1776691110718498,0.01177504888139206,0.3169060844329991,0.03896879723222026,-0.2653732701591154,-0.2616261791745996,0.3958440647196123,-0.08575654511413508,-0.20868799687360362,0.5496009644802942,0.09870039967131781,-0.4843015151393487,-0.04547115522642847,0.019460127987176713,0.00011054325753646415,0.0,0.0,-0.0008737388298273358,-0.10746626126880576,-0.5571992937898013,-0.14266874250118877,0.24562182738634314,-0.028379739600925165,0.065973292986376,0.15192912200126404,0.34624006848022465,0.8043231330631587,0.1828964215011394,0.045609906291015384,0.23876943806733714,0.09497366034539603,-0.15387091780345788,0.45266655793714505,-0.6140221891361562,-0.3962666819508339,-0.5754244357522582,-0.23986196061933693,0.10040968055327518,-0.2690922244051761,-0.4794877914460414,-0.029191474793655848,-0.0007262403259979383,0.0,0.0,0.0,-0.0018798698067300972,-0.003573344775547553,0.14706135114501406,0.2532089304104858,-0.39326721978084467,-0.2831976511706238,-0.12684019848509945,0.1836165013324621,0.40890296746692495,-0.23247927075067415,0.7243819007928363,0.47336886720662563,0.30545778750005126,0.4242464565780253,-0.32376883107673743,0.07729820492223893,-0.12427255493371771,-0.7811364923374726,-0.7956409392679367,-0.4643627839125684,-0.3158747284219663,-0.19815410303325937,-0.023038198043290596,-0.0011106680527386448,-1.1260777568222177e-05,0.0,0.0,0.0,-7.993309540235222e-06,-0.00017558899715877194,-0.001997489473989361,-0.07442443286462878,-0.27999599039595763,-0.3007412553340314,-0.4112188818897418,-0.8197332980469266,-1.1028480971681345,-0.7436572698559436,-1.2078471362494996,-0.7572401927077663,-1.1781996410173348,-1.247991008632887,-0.6397662039516957,-1.0945105407513358,-1.2212761001884571,-0.6004421256228436,-0.5813593372712116,-0.4460425079117411,-0.2755280503286308,-0.08183746186838192,-0.014034238161848117,-2.0083126421534513e-05,-1.0202069306010565e-05,0.0,0.0,0.0,0.0,-6.175031907096169e-06,-0.000390838771118659,-0.015322596375781927,-0.07333522232596652,-0.1442179746682,-0.1664353750806415,-0.2777484258821242,-0.20742281111228744,-0.13453252989171588,-0.08517984477423221,-0.18779481454278454,-0.2562147019104663,-0.2326411578751494,-0.1676544723236472,-0.3358821926626538,-0.2260161516237275,-0.02135189763901101,-0.1913966552248987,-0.2485464620564704,-0.17148989982502974,-0.007343883315660909,-2.555289401254664e-05,-7.857695689824326e-06,0.0,0.0,0.0,0.0,0.0,0.0,-1.9455292539733837e-05,-0.00014937029931312958,-0.00037583279643306754,-0.0006886899082579723,-0.001069628275052832,-0.0017536875907040467,-0.002726170998466152,-0.003949658291962622,-0.005433913688591488,-0.008284851626318082,-0.011464433534556949,-0.013846093090400378,-0.009018080666496888,-0.005982329014176847,-0.006309853654861076,-0.002864548893498196,-0.0041247577056628655,-0.062083660516440015,-0.19630237819800492,-0.044816258944845526,0.0,0.0,0.0,0.0
0.0,0.0,0.0,0.0,0.0,0.0,0.0,0.0,0.0,0.0,0.0,0.0,-1.2421859907030696e-05,-4.5675061786195435e-05,-2.055966540129599e-05,-8.56652725053996e-07,0.0,0.0,0.0,0.0,0.0,0.0,0.0,0.0,0.0,0.0,0.0,0.0,0.0,0.0,0.0,0.0,-1.1995146724519998e-06,-3.523574350327742e-06,-9.083158586197154e-06,-0.0004700077662573063,-0.020429385496620496,-0.016029780848121056,-0.008295525390093796,-0.0009629247887436035,-0.0015462794767613834,-0.0014942143948088037,0.030680242110023247,0.060243191986700056,-0.1196578134166919,-0.043677245720802386,-0.003005512177402501,-0.00041596938465118246,-0.00033936974756570786,-0.0001360962785863486,-3.992994429679325e-05,-1.4623980387951865e-06,0.0,0.0,0.0,0.0,0.0,0.0,-3.979408117911068e-06,-8.879383581525213e-07,-5.842493635304442e-06,-3.003192090940058e-05,-0.00022098640679244066,-0.009905984440946387,-0.1527538454577606,-0.29429388703905246,-0.11456106118593265,-0.08666044867842199,-0.06826391226976464,0.9102997866265057,-0.023258379352779114,0.5940594800764029,0.6640718992669168,0.19359828940979287,0.0472269861314685,0.43248395659257016,0.05028972061247649,-0.01889413489625713,-0.010145529854147453,-0.004150309451923823,-0.0008925182856449415,-0.00010982171999803141,0.0,0.0,0.0,0.0,0.017231175107505773,0.004086711192915698,-0.00012126473046675124,-0.02650871901006368,-0.0083171220189427,-0.04970728048135801,-0.19792530455521834,-0.20310556800359889,-0.6528844859622714,-0.9869677268450597,0.17080061894538565,0.1744477622637547,-0.5141864765381192,0.12603480343893766,0.2488741423594128,-0.42306409705296333,-0.6761261472870604,-0.00682838518234734,0.04364887270332007,-0.1927686065336233,-0.5127306946746668,-0.28903425700510577,-0.26290252429117306,-0.023715834192411425,-9.9866432973772e-06,0.0,0.0,-3.3906946594261247e-06,0.05909076916834408,0.008734055126480685,0.049487339232221796,0.268502358813658,0.2529660163252919,0.07356379782836496,0.13144417056911775,-0.27383565171349755,0.14861920513331084,-0.16270501890101524,0.10850087249598447,0.2158240534351887,-0.011652997578211562,-0.1143706241999968,0.33014291587726624,-0.16869709625427315,-0.16607779009610174,0.2749878950359299,-0.13602054010546552,0.07130002711691333,-0.6209673840026353,-0.3147270532721111,-0.6004652051471695,-0.2917762302528575,-0.014524970889434347,-0.003400879803949759,0.0,0.0,0.010730211808570436,0.055581265021012835,0.1427968982034526,0.6764308048027763,0.5769401581158385,0.19107288510459186,-0.6896896534675531,-0.5400343669045308,-0.37967011081850044,-0.9220056029000092,-0.4945514154317196,0.04000912770013435,-0.6364865099924478,0.40379733338802537,-0.40120816264348563,-0.3224206249883755,-0.01762175612249583,-0.24460953586549572,-0.008603588882403894,0.42733515461101523,0.2941168518400132,0.3121813180898273,-0.026471972675019516,-0.57972352210243,-0.04980762836748612,-6.534400175392416e-05,0.0,-1.4845030845638648e-05,-0.1233213652730802,0.06388518218039073,0.06712273267526536,0.21565198643130384,0.5672979745059474,-0.2789017257142915,-0.6715398304004958,-0.4605532437345042,-0.05154091921383506,0.11885265293472487,-0.5860116889661924,-0.19109358341058,-0.23906733396172444,-0.4657961978994554,-0.11900410660637005,-0.6881358050030542,-0.1843294907231349,-0.4841010404959137,0.022613971017052002,-0.24426411157415168,0.009879378906552551,0.32402474481432086,-0.22391892715317063,-0.5270335524667646,-0.13883308692887278,-0.02271703634840225,-3.0430700090179877e-06,-0.016434390899881732,-0.2993189425824215,-0.06395788043431075,0.18515278675205202,-0.29451775564208665,-0.5257236017456717,-0.3928432525356142,-0.8390620114707115,0.09007487870083583,0.29084037903798626,-0.6413961698534199,0.43356636195330595,-0.6488959638679144,0.10605003729800411,-0.5659014231287891,-0.0029817499351131012,-0.4017661932325622,-0.2120604583067767,0.15611664097025574,0.33274725151031637,0.2361223175645461,-0.41608379241869903,-0.18559456395423174,-0.8780708299326915,-0.5630386432856446,-0.05464023067672871,-0.027616227777358292,-1.2366518547285875e-05,-0.013386139391670212,-0.21440408094152413,-0.01266192915862214,0.18843242071226415,-0.4810397610972585,-0.7245196692250974,-0.15132621522729123,-0.441288504572791,-1.226660701311915,-0.0006721370181400734,-0.4339172916193734,-0.0023658897392809576,0.1677946494746934,0.11395974328847969,0.014635077590122728,-0.5301763049854872,0.3779058679396009,-0.1697453541725894,0.044335763995037684,-0.5317934205127128,-0.2976099297804264,-0.33160590218194863,-0.5931064990503492,-0.8532533433429003,-0.5630959427369336,-0.05151943382509755,-0.01029640157341931,-0.00050445839129478,-0.06096221571797775,-0.13980787871539085,-0.026213010226050423,-0.05182316613911913,-0.7779520699465722,-0.5590081906910587,0.20754162256449926,0.2479036444801261,-0.43041083585602546,-0.3343792840675737,-0.04990799243359539,0.050207342244971864,0.20624960064423775,-0.14881764712287573,0.49765160345392917,0.31758494900549394,-0.23265906200787614,-0.29268042654477106,-0.3092671456111541,-0.6819441780266483,-0.044990505570025235,-0.18210788807207584,-0.5874032521730732,-0.4245667827192587,-0.5047993114565026,-0.05026682858466955,-0.009850371850379291,-0.0005908864677232428,-0.004212449801531484,-0.07171702409897938,-0.16697537700222387,-0.3883000683504246,-0.8213664925365071,-1.1094211014602795,-0.4396638918495186,0.27658073769466857,-0.1255157807874067,-0.029792855505925142,0.4254701424771345,-0.3326359749805094,0.25595579200535207,0.6670500614354234,0.9734838633446017,0.227815680154578,0.4595596815232473,-0.3844760343358641,0.033080231957946286,-0.8349045414141125,-0.13502284830421743,-0.7128387580940587,-0.6484353186640234,-0.6965004198595877,-0.22034921696667678,-0.1329241872940285,-0.0008727832538747771,-8.7591598766498e-05,0.0013652649924986925,-0.0009505543938338808,-0.10700507871578514,-0.15936756047452855,-0.38889345790153895,-1.0686630431319248,-0.6658634608298379,-0.5912338174938377,-0.48624834012283363,-0.40248396410073006,-0.20577243632255282,-0.14773818695295682,0.4737959666902069,0.6451672240556816,0.7955266005324476,0.12520378773491647,-0.3559784955594212,0.23224961804697586,-0.13731080584343952,-0.030740084364750796,-0.2913955080629138,-0.38183141711693824,-0.30936214625907854,-0.5410929447979718,-0.20301777550997444,-0.1493650643318597,0.028046671687019683,-1.5496870784510408e-05,-0.0005019197260547093,-0.021129186822925684,-0.006008906190691983,0.1326133158162428,-0.10695399857593316,0.049878194694044295,0.1227037951894976,-0.29922261859201815,0.07542425778542303,-0.18823922304303825,-0.34354742904883423,0.05248908987464452,0.23282883330407245,0.9939114681381811,0.5802150822239596,0.11048096098804339,-0.05602929776281311,-0.3431207888899943,-0.35996023378841774,-0.12831876480580734,0.11055182955727628,-0.07170057020626301,-0.060215726155856956,-0.2597942677167763,-0.17380231038497757,-0.09671895934825392,0.01954555427796308,0.0002204005077554235,-0.00015962796232294742,-0.006979242398489626,0.07109364134729367,0.32452589852590774,0.004792160673537779,0.1843997959567584,-0.03408954111801741,0.12541205642618514,0.1276233211993509,-1.296281969008158,-0.43610882284696506,-0.20237004401845593,0.4988444471772325,0.5449360047001901,0.4456879642073466,0.257954240636529,0.8732333198017812,-0.7925920857666143,-0.7175559829920346,-0.13509585153212014,-0.11604274937616789,-0.3706186694724699,-0.369525315059091,-0.3511583000122379,-0.1830536130016789,-0.1456460726979545,-0.0023031399250934967,-1.641283232591827e-05,-7.340627696830964e-05,0.008684640882442664,0.1383478930171741,0.22720824855250135,-0.0304212998797661,-0.2317739480135778,-0.5875069335041336,-0.08408853376247684,-0.03888931207533984,-1.2398393712273483,-0.4588394508704779,-0.018875149362624483,0.13461883226577678,0.5915529640925201,0.5826411284888278,-0.13589642534427415,0.1197754092683142,-0.741165255863623,-0.4102062342694047,-0.07345190531999025,-0.21863073888044782,-0.13836450571110093,-0.1743926429713604,0.050129905057566586,0.003381609094827999,0.01910054311948194,-0.0001150750933748326,-5.8801868008385715e-06,-1.9760596751329172e-05,0.053558953234119494,0.00402128588080096,-0.001788612827473701,-0.31143531412428727,-0.5074702209914381,0.025438242297387153,0.7233517134367963,-0.24931101199629094,-0.6022508024608184,0.16472580299044087,0.2768479662848395,0.4247981570750525,1.00079455803548,-0.17038530144504607,0.8434209147372751,-0.31629610879734876,-0.7144837569563567,-1.0124069844079864,-0.6999562625958754,-0.42002261520715184,-0.27294990261600094,-0.3006241997223225,-0.12610828944330024,-0.043152481346391165,-0.02001460086514418,-0.0025596587897131285,-2.891848922163445e-06,0.00012111678505031586,0.039790777760718106,-0.0035636753522745724,-0.017229878700394986,-0.007121101040761493,-0.6044031564892414,-0.42174895553869934,0.04331873990835821,0.07759270634725833,-0.3037698977238428,-0.3296910846455261,-0.3675275893710111,0.14451306967582084,0.9001336154573455,-0.6844849682132469,0.40711586673517136,-1.802965160373938,-0.5754508652496209,-0.7213735713731265,-0.43072767745191587,-0.4046210330203829,-0.4412512931044904,-0.48443456193915896,0.2273603674698694,-0.1737768888403786,-0.05342136263587577,-0.01727085215293501,0.0,7.698022456228713e-05,-0.0006457570665185864,-0.006632380531996239,-0.06375924566812734,-0.29187977644946866,-0.6997386101417015,-0.6178984528416696,0.03845934126450643,-0.4820468402038076,0.35492535803526226,-0.5047293599303907,0.19316307542197017,0.661454787968683,0.6954527585369379,0.2571973882232272,-0.2079619281533035,-1.1597399559475872,-0.16051030816393005,-0.06006225171823109,-0.024111104039282627,-0.3077866725609854,-0.07858537525385284,-0.084901819157421,0.21964000171859413,-0.387151838739159,0.07587245654918591,-0.030004204050350675,5.9503290438338875e-05,0.00028390018873917415,-0.0012420729686005419,-0.01029384680686424,-0.1700966276332258,-0.695669024646732,-1.2516209381741017,-0.7193951805691768,0.06697203040271947,-0.16255696040000556,-0.35587714080122423,-0.13837375586651995,0.15652299720656734,-0.1108007431154926,0.29391295700074715,-0.46131390877928485,-1.2951897641124284,0.24334828141623238,0.34290143321848904,-0.2130193268655669,0.24780633291776294,-0.0002539393280151316,-0.09758408612507653,-0.050576126905907744,0.20935263575531374,0.2462740309424145,0.1728592564560545,0.049175395160539245,0.00039189569477317835,0.002033242313723104,-0.0007492584767069092,-0.020236279588426095,-0.46983503040714975,-1.4221279895484848,-0.2893093643631407,0.45992911023247185,0.008362921201444483,0.6111484250773108,0.3895092982232985,-0.23253153966294304,-0.3603780535358528,0.19472230436907395,-0.14867094603462655,0.3199512417891356,0.6827500601034864,-0.4150753940118004,-0.3060684323280222,0.3398693985235716,-0.10778576337651423,-0.31481133299232655,0.06852487314092637,0.16578646316800974,0.3721738415426742,0.4953892461156786,0.1493785873586563,0.022334081568115647,0.0,-0.00019129062513905336,-0.015743695736710455,0.04440056055905109,-0.32129305671695063,-1.666100196341217,0.08488950798306646,-0.15221048665908898,-0.04392416108217391,0.14507198281551847,0.297831733017595,0.16207156222177854,0.35304101214606,0.012812819240864535,-0.07177730022493116,-0.5760475708696988,0.5399940037171411,0.3080299893607126,0.9323102078002009,0.6697515524245219,-0.12297294738045979,0.595861327486337,0.42101327480937784,0.03028831503120526,0.24911084020602944,0.3432808956315224,0.15869187588458186,0.0012559947336562868,0.000989295993800321,0.00016353821329062742,-0.0275694607281833,0.4054778685411652,0.5727271368492952,0.7692185300545501,0.5372013303946122,0.67915576553667,0.3198433361826411,-0.06609479740623879,0.3839666533730724,-0.094216943290007,0.10045403605218323,0.015566562253558357,0.38563235436436166,0.5166405252643719,0.03119748510126669,-0.1394753031991153,0.5045400830236944,-0.39912558681559596,0.5884315401680301,0.8125652783860535,-0.4799246509480391,-0.12995932764287424,1.1490903367275171,0.5119694613961767,0.009678152170078247,-2.0669149926803396e-06,0.0009583804939940562,0.00029507873268648624,-0.026613515204937446,0.058419009899179176,0.1515648399866918,2.2706290830067393,0.3713267230853163,-0.19771782198779586,0.1089652681967481,0.34278374862954303,-0.2759252286621953,-0.31987941511733786,-1.011443821409932,-0.6084354876216503,-0.34163920257139235,0.00799334272003527,-0.16351496160047502,0.7307083453395543,0.5349734461841164,0.41204590531818164,0.9195849439319228,-0.03554902847177634,-0.674433363766855,-0.057310165051884805,0.24278246927675148,0.24627198070303144,0.02834369872016834,-3.815843063409851e-06,0.0,0.0,-0.0008205786463870157,-0.3941974914811762,-0.719883366547288,0.6617966773308737,0.34783712998171296,0.20042728970797694,-0.07038702564893931,0.07015179462418138,-0.2672147503747493,0.037259403461665,0.38449233062381005,0.35219582013256573,-0.550662374098372,0.40275315403933937,-0.2340668116776944,0.4341606406548499,-0.2615437850070504,-0.242103946385296,-0.008526500736982775,-0.2665020172251505,-0.05260163462727575,-0.2433006019701542,-0.08956598983391234,0.00556343579465433,0.10640406556547186,0.0,0.0,0.0,-8.199588195407278e-05,-0.24035646514879616,-0.420797918571091,-0.16574941660915662,-0.3918409133171568,-0.1512602832039771,-0.3419245607948786,0.03391646072408949,-0.08380835898043437,-0.37380055600760714,-0.3808924973199293,-0.47215335877425757,-0.4481341695102194,0.18915823152730057,-1.002567472210018,0.07612371514899843,0.2982913140167952,0.2912069647909154,-0.0781811342455567,-0.15695752531422644,-0.18389773077288082,-0.048139175573608584,-0.05911536693364452,0.06928827649452445,0.013628622176447704,0.0,0.0,0.0,-4.637830145226413e-06,-0.0444751069803473,-0.23433333186899163,-0.4447528439611746,-0.40904237882274425,-0.441154399965221,-0.13026056994195287,-0.17454992366748479,-1.2708016102886524,-1.2680378499343126,-0.7372904495887002,-0.7441732771389367,-0.8478865524875793,-0.8148278539016326,-1.3360930426333484,-0.8949650176289573,-0.6994545879533354,-0.6089901718907994,-0.2032469518579586,-0.026807874532381235,-0.015574027234967164,-0.046500969064836306,-0.00902765640328792,-8.06693374211164e-05,-8.700767854018633e-05,0.0,0.0,0.0,0.0,-0.0011544014652640276,-0.010503351020736606,-0.01911567512059374,-0.07949775433656057,-0.1280996527933904,-0.08448376370003724,-0.12273769207212859,-0.44055520847700436,-0.3757609897257046,-0.4722376510181021,-0.7042007830701441,-0.3563973985265712,0.038165534440375765,-0.11178812234878135,-0.15483800570026263,-0.29787807631781893,-0.18896341008469886,-0.05015583026823413,-0.02091172442879418,-0.00860893801473927,-0.004711121163201653,-2.0758137581752204e-06,-6.300237329575326e-06,0.0,0.0,0.0,0.0,0.0,0.0,-2.2144582904085995e-05,-9.83997865880932e-05,-0.00020560051746055413,-0.0003904562015759727,-0.0005128874102348381,-0.0007172891257287183,-0.007911695784308791,-0.005404680858333214,-0.013313543112925976,-0.012855421999428157,-0.006947836099225212,-0.0027692409715329184,-0.002288958318458822,-0.04250165402239925,-0.13355095899413935,-0.0017738477655593245,-0.0001771945974417145,-4.486702501799747e-05,-4.1403350707981404e-05,-5.999748387267711e-06,0.0,0.0,0.0,0.0
0.0,0.0,0.0,0.0,0.0,0.0,0.0,0.0,0.0,0.0,0.0,0.0,-0.002191627941648572,-0.004321298608476936,0.0005314894944310527,2.2145395601293842e-05,0.0,0.0,0.0,0.0,0.0,0.0,0.0,0.0,0.0,0.0,0.0,0.0,0.0,0.0,0.0,0.0,-4.802756774636188e-05,-0.00014108098025493899,-0.00013344180517326867,-0.0010617152095693029,0.00653480918337643,-0.05914463576858931,-0.06533631175801205,-0.09730664524330362,-0.13252315500083556,-0.07710951001860743,0.16497405363734874,0.24632384796412243,0.5409246628424945,0.08605713702598122,-0.025754266024205177,-0.039974545106635936,-0.026140813868902265,-0.0068020739816614184,-0.0006248056478936607,-5.602105819784882e-06,0.0,0.0,0.0,0.0,0.0,0.0,-9.455615636432065e-06,-9.10599235544034e-05,-0.0005116007374865829,0.0015822999788093614,0.007960966144913493,-0.01243711723302559,0.15588700173886796,0.4528322680931388,-0.005924776604161403,0.4860673194773148,0.793011672749828,0.31935663932758035,0.6639145768943585,0.7640812024126872,0.3899820693060329,-0.1608188953885713,-0.11985010237651307,-0.414115177049626,-0.0018571842861766707,0.0006017441329314511,-0.06463555615854714,-0.011007025701984407,0.002367355591512847,-0.00011205825642117341,0.0,0.0,0.0,0.0,-0.0012811449041657797,-0.001329495478120572,-0.0360494767318714,-0.021323726671667778,0.10763576803029194,0.2124475937402411,0.49535122044227115,0.9243674486806647,0.5333668290449618,1.096201825651894,0.48390686061221133,0.6986750848478235,0.35149762798733597,0.21379912164493137,0.31128698398920107,0.2678456130716119,-0.2034514209890068,-0.25455764198693354,-0.4874960377366118,0.05258003556459876,-0.16840197111286087,-0.34464884395642065,-0.1412618197225287,-0.013938877275308076,-1.6976047087823605e-05,0.0,0.0,-6.345245667916112e-05,-0.006897021691571198,-0.04243046329992626,-0.3813450644425225,0.08265426926987134,0.9136268113345387,0.376883274085502,0.29489172012351994,0.9782967575126393,0.22846108604406226,0.27197405635099114,0.41152853632676245,0.23135700688247313,0.48746839847270224,0.06352031201707954,0.4174586944694956,0.210808454524764,0.08613976014341276,0.18268130614228997,-0.11361672984726046,-0.26851967493753237,-0.7921507711471499,-0.654490080626421,-0.6609225268833522,-0.0841308910756077,-0.001393799915310295,-0.0002163330634138378,0.0,0.0,0.005663952008137129,0.004896898212860069,0.35026328384081623,0.2387439005406631,0.18467354342050551,-0.21782332487655076,0.26766710905866453,-0.09463304841397101,0.11792157883319083,0.2532753608828897,-0.0013498706721125286,0.0775958945408865,0.33383633682045827,-0.1112183323474663,0.3733123616520915,-0.0005331890069974454,0.1425658078116173,-0.138911780630523,0.054931202113388394,0.19914422116240896,0.20383216405827773,0.34659043066689904,-0.564971343252664,-0.1370221584100412,-0.009471717846616453,-0.00012533734818497808,0.0,-0.0006821707460605827,-0.06976024872961688,-0.04366471946153344,0.6708976902880351,-0.11080062332171929,-0.2948726361062343,0.108187704417464,0.04766762942100949,0.053446974144443216,0.6428736032567975,-0.415849393181032,0.348440164723407,-0.30060470887168395,-0.04094972359001287,0.13213023503160937,0.22547485349477844,-0.13430578727917117,-0.094146506206779,-0.03341624187399046,-0.476686288320335,-0.04932074198537147,-0.2673415959088629,-0.8161849493884978,-0.6301807421000785,-0.22267532721589225,-0.03370584681861109,-0.008005509455376217,-4.5912432014942925e-06,-0.015903444231066245,0.270823387216608,0.08185773768476062,0.7959680054073496,0.30576743392370964,0.6748693500051535,-0.19316610668470535,0.42354456930527,-0.07199372173841616,-0.25599293399601764,0.24202739747021992,-0.1959733809330102,0.6306346677487028,0.039504264973525285,0.016189729448746117,-0.10234953369040538,-0.5094063822012422,0.14047450974809964,-0.20706205016765736,-0.05067756916798758,-0.10359725860296054,0.8195974210392755,-1.2958367262514325,-0.9099606445437273,-0.08265711611320896,-0.047859464463811945,-0.008779191757437702,-1.8658030882668272e-05,0.006507176472712162,0.12175642412850374,-0.134541303906974,0.6422954094552175,0.07788152912673017,-0.20490105920100782,0.1632236508460332,0.05456542812911394,-0.25810797709459515,0.35785555537283115,-0.056013589694316135,-0.11237626761606435,-0.2735811916339875,-0.13715065404622848,-0.012643921886772764,-0.021613413352750906,0.2926809723106493,-0.5867418849284322,0.5443326730972265,0.05871702574824753,-0.3845774143151082,0.27145683439161783,0.3120705659971433,-0.9931902292818559,-0.3923127718337464,-0.057520226599746836,-0.009134933504111434,-8.176259061514808e-05,-0.005100261218104114,-0.2468963176356987,0.24569615969674125,0.05717601785696511,0.6833844310494938,-0.5702337538701039,-0.3234571124566297,-0.16315201309613855,0.21738509422472552,0.506342895601546,-0.23979046807744964,-0.0874156133950388,0.0745669664567662,-0.14688061686392828,0.4241571443261887,0.05271251245530972,-0.23320610912582096,0.2067569700871329,-0.06560953510869191,-0.13023893772600842,-0.1985648618514803,-0.037767334986503594,-0.2985293394115489,-0.79041392005171,-0.2857007836489314,0.06001931505090349,-0.0028322258554147077,-0.00012848244143854744,-0.0039890011821078295,-0.20853051665869107,0.6479509713557439,-0.20234238511359634,0.6163685526368877,0.9136523348050378,-0.23790664320302227,0.036807677464513806,-0.11966528110644788,-0.11823404630849395,-0.1098207365023582,0.33641596025687076,-0.24966811696967406,0.39709043976241487,-0.24834949619990843,0.05759936634261765,0.4008594613532861,0.11747529697938315,-0.3122296461888168,0.26906479222774565,-0.2697084079816416,0.035495871118385626,-0.3660345380417274,-0.6303606575205121,-0.0007073739162929612,0.2291659510686495,-0.0016167142295953458,-0.00022290171362193857,-0.0029801732179512465,-0.07933452649721272,-0.010928180348060805,-0.15989448288955732,0.237891875535518,0.4687231318025432,0.30941068290055634,-0.42304332640184017,-0.6777529365321632,-0.7310365108717388,-0.282622131139679,-0.7448668984073149,-1.3460940651338553,-0.7859005801945865,-0.4836166776777791,-0.2557626424450177,-0.6501720374628311,0.05706257444621383,0.6748842096341954,-0.5823940493815728,0.26430643820891303,0.039190990137019696,-0.10854804450045873,-0.30286100605377025,0.593917539495061,0.02874795815670619,-0.06127397248569197,-0.00019252835337945455,-0.0014556851954486056,-0.0051178532446355205,-0.4219974212626202,-0.0588630255035533,-0.21229121234054973,-0.8362773946692895,-1.5423633672886692,-0.5557083189067953,-0.46007654560045447,-0.5473411433460448,-0.9380320298009962,-0.549099924832863,-0.11517112213680918,-0.24391612496376464,-0.6383846695565143,-0.24779153911705804,-0.21035958621722722,-0.6649588143806346,0.08532058106081393,0.252198332435171,-0.1830920146193561,-0.0667354796223731,-0.9852734800018239,0.39536164767473275,1.1277133893231226,0.22607779864238486,0.06999707354523227,-3.117177276000334e-05,-0.0020692931691592424,-0.003290190158394475,-0.3874623806433429,-1.2761764663370665,-1.0921048801951119,-1.5288441054839244,-0.9547387116488946,-0.37256394438331697,-0.2877361754717124,-0.11278698814785536,-0.05039028270127324,-0.08784096769643053,0.2660674928962736,-0.002053942657681284,-0.3433615540657393,-0.11013041780525785,-0.09200129672826686,0.09357531171655797,-0.13419025970990356,-0.2528593767482946,-0.03177704546874597,-0.028138810071910367,0.24791613335102514,1.3435288144489905,1.1958917756290093,1.4854840091698982,0.7570976257536661,-0.0001810298712402072,-0.06265272624584046,-0.03964813248231114,-0.2756760015504615,-0.8511204925119709,-1.0715280373077856,-0.3809394624152937,0.24124255770877062,-0.49379021671616474,-0.13289942909269042,-0.12612571431413946,0.26432117803159305,-0.39238830435960537,0.043487289647531104,0.3254159125902754,-0.31670218481357304,-0.10961236147068677,-0.2778977608740018,0.14213433789308413,-0.2839349645022085,0.23893469337627055,-0.43436492911199154,-0.025550949733555706,0.31218725848985274,0.18962835150525686,0.786249858146891,1.1973838594210255,0.07057012474792287,-5.988560310537401e-05,-0.12087423650799142,-0.09553814139097945,0.5219678248288486,0.1863274053380592,1.119500134460713,0.5944006177749418,-0.2751737950424353,0.2241134964200641,0.3833483572607307,-0.21907419361582406,0.05735657814440468,0.03756633141388449,0.22705264371910455,0.1754023495917823,0.01655343988602258,-0.0660049332826455,-0.33359639568451704,-0.20753958752295387,0.1864032243805476,-0.36305371623762617,0.030918675784678364,-0.6030289576097905,-0.692694236027843,1.1524214781697844,1.0857944636037593,0.9409195742321608,0.1391290032649356,-3.4876316065528037e-06,-0.05929952938679937,-0.18092941930432055,1.1283732503205746,0.0998710149154506,0.05288158654474368,0.5616565075848331,0.1972354332612612,-0.36211799602211286,-0.14432644849969256,0.26423357215154347,0.2298725268142241,0.45863029331162897,0.30757011026348696,0.3711839913927973,-0.22834330201875372,0.24783553825847968,0.7362506377943031,0.0009187876263108134,0.27902801568264063,-0.6037497207259728,0.7805948838347657,0.31235522823559947,0.5729755047655366,0.45191287224953036,2.4326667348083824,1.7321624865867313,0.38334322506617086,0.0,-0.01994201076190965,-0.15733866318445064,0.650187989225277,0.33578073483397625,-0.015692435823457404,0.44752322879342815,-0.0051838754151962655,0.04768205072946415,0.539941349831564,0.4198041987394372,0.3690052891755709,-0.003174484974750321,0.5257970453946562,-0.17261936927526333,0.27210272631607874,0.0009564579149462508,-0.5680826028880485,0.14922869566511415,-0.3041841117296294,0.02284149982720191,0.08921259784219043,-0.11978465240136049,0.01115041844765299,-0.2869528813863294,2.56671322559882,0.716191166311779,0.1500824923024047,-5.730601412921781e-05,-0.0003192711291969234,-0.22019700674843176,0.3357747462727153,0.7353816650626255,1.0778849335196456,0.307010358403315,0.7873451560524531,0.07856157881715642,-0.2241293340891861,0.25703405210329067,-0.03287308524579527,0.9518317667341392,0.0007543138013177429,0.27955249883159633,-0.14361057343877856,0.20208779817741424,0.43224081583055873,-0.021207863786736503,0.487833758781542,0.02928784674517613,0.06046799973373745,0.3982348151974614,0.21412017052760818,1.1663922422230208,1.699502777312928,0.13618553358563754,0.12913892605996136,-0.00025631093123891876,-0.010238916641891306,-0.1777645509149381,-0.27995940345696935,0.22973214077524426,0.1280778471835315,-0.17929789276903196,0.12820634814903747,0.14063635053127238,0.34355244715174826,0.5565868748709322,0.018939092642381535,-0.08086285284403488,0.7778871937317223,-0.09823734657951848,0.6111141885657949,0.06818982987289045,0.4254219571691295,0.2815766246166159,-0.28921854435290906,-0.06339629226173953,0.2435454039743108,0.6873381441050437,0.4441759567640011,0.2287400073555209,1.2963351071592204,0.633863021657627,0.0663731972038855,0.0,-0.022287608234070624,0.029861056111202433,-0.004022727753574876,0.5437700943607965,0.6197451588611682,0.42226330976296717,0.7897343177668339,0.5071648278405287,0.2264507738879266,0.008630209318615738,0.7600465392993394,0.12444056371998916,0.14967866982439573,-0.20161174608249718,0.19723370792978373,0.0824574757243412,-0.3475752678922359,0.09075322758749643,0.3023083518502139,0.5397680571110992,0.41525225162632157,0.46087202811424793,-0.06237915132127647,0.6757785138301875,0.29267419740760897,0.0697669567851808,-0.001036931149717428,-0.00047668111205201183,0.003621024276334726,0.3564417041447176,0.22799392948268202,-0.1715730583353038,0.08187037571453293,0.31920620410635225,0.48669928082496344,-0.8038811575984026,0.4303569997713869,0.11359537296847345,0.3489929796513756,-0.2529518285886637,0.4862429728886814,0.037075131807937714,-0.3538882928231435,0.44765691336188745,0.3414255393423782,0.42957956594369956,0.6650172061499606,0.08371296495825618,0.1671797886522464,0.3671685539072974,1.0922779206917554,-0.12740137102848836,0.42399552615262415,0.03609919279893073,-9.842854637041827e-06,-0.0004617848273003869,-0.00016110813966017568,0.5176943501179668,0.5516544111927565,0.6100876865471203,0.22584767422227117,0.5636831669207731,0.13512810039463036,0.6777538963871622,0.33716100994854453,0.3966735263221014,0.007490035910069262,0.24776690722370465,-0.21405678923136187,0.2170917158663095,-0.10550762304713192,-0.0012559312918236838,-0.12434068900067198,0.40152811905951363,0.003189836265588329,0.03241959558929391,0.45453533265594553,0.47587848029232016,0.009749581317110944,0.47594086599106344,0.16418048149093742,-0.18999669703960478,-1.8171423945308054e-05,0.0,0.0,0.05675826136296704,-0.08366300246414517,0.5242041615529839,8.141515994368225e-05,0.1281142093444145,0.2195407940441158,-0.05542414758815482,0.3005897761944985,-0.09678356720514944,0.014106931166068365,0.38601863381704216,-0.1298276535371161,-0.10376268544838255,-0.07181196218253082,0.30517774655995783,-0.1980668811849672,0.34685058741118585,0.28343098805806033,0.6070922315170886,0.8046362114489665,0.6823182379447641,0.7204009284122092,0.6930308134308236,0.2403477633635214,-0.12058160022145045,0.0,0.0,0.0,-0.004900832623811328,-0.4669150514314741,-0.4577479497364948,-0.2333926230538872,-0.5424141512701327,-0.45801948119454994,0.05409076636680459,0.3991703836516624,0.022078038891762356,-0.12084301474684052,0.6671948959857275,-0.22434631818892803,0.72748254676094,-0.37139346655692385,0.015494738218891798,0.5182853631272991,0.08409295902136725,0.15128416260964894,0.4765196806387507,1.3617348279820494,-0.33574795294156895,0.1825356335516248,1.1536386250507433,0.5942155768155277,0.10445476001812448,0.0,0.0,0.0,-0.00011590026801867613,-0.08985788302431859,-0.12295998214872508,-0.14862028985114303,-0.24054761062614122,-0.34331850718508106,-0.9247188710616857,-1.6597586581735528,-1.1488323533746705,-1.0324880157746297,-0.5583015665067209,-0.2859356638716153,0.30104579411989846,0.5762176261363551,0.32449235091906087,-0.04414762823179007,-0.36020854759684706,-0.5767892634142274,-0.6120475321645451,-0.651341145181822,-0.7592423114130409,-0.27771633031202414,-0.04321541680589987,0.09217696477954863,0.1110572439156369,0.0,0.0,0.0,0.0,-0.0001534293732542845,-0.0025593825747257755,-0.007121795851731038,-0.024640960881121624,-0.05142926531500843,-0.08185497173054194,-0.1633825363960696,-0.09885064034319295,-0.3026742097867762,-0.1382691227827723,-0.3518785364073433,-0.2407031933818252,-0.3299570461480875,-0.45858826022538607,-0.5020024871434411,-0.2937051546904139,-0.1133051925900484,-0.23596115385932945,-0.20004690732207464,-0.07251039333893844,-0.0018526949273847658,-4.1847330151957416e-05,-1.5269878235860818e-05,0.0,0.0,0.0,0.0,0.0,0.0,-2.262558096290329e-05,-0.00011562511447865607,-0.0002707272462505361,-0.0006661386389784141,-0.0009590471143813939,-0.0009858965117490316,-0.00239042406181722,-0.006048704447294129,-0.0034132975174744084,-0.004369680110366858,-0.00438832996862561,-0.0038723311271891604,-0.0030796761143867123,-0.00416355604883965,-0.007301865420745982,-0.002861667991716909,-0.05740932149361049,-0.0426094547265188,-0.03642122535962244,-0.003099186545554562,0.0,0.0,0.0,0.0
0.0,0.0,0.0,0.0,0.0,0.0,0.0,0.0,0.0,0.0,0.0,0.0,-0.00015918163397850903,-0.00037773783741270743,-3.247726450594514e-05,-1.3532193544143852e-06,0.0,0.0,0.0,0.0,0.0,0.0,0.0,0.0,0.0,0.0,0.0,0.0,0.0,0.0,0.0,0.0,-1.3074696185152756e-06,-3.840692004388586e-06,-1.3796317253642378e-05,-8.00924131953054e-05,-0.000660125064261848,-0.0005981252683046168,-0.0008619902164833589,-0.0015171352660537961,-0.0073992473587686175,-0.004175095135309424,-0.0036693209463027534,-0.006024721088578964,-0.005005574247133838,-0.004374591682876929,-0.0012544905819896822,-0.0013981406682876149,-0.001945562517233307,-0.000413805282236307,-5.322967408280388e-05,-1.1555552033428519e-06,0.0,0.0,0.0,0.0,0.0,0.0,-5.799789213301354e-06,-5.610792796614621e-06,-8.27691544011205e-06,-0.0019564997016920404,-0.010406805216867729,-0.016329490083918784,-0.02625295135391102,-0.04378922021654952,0.0243204847523508,0.24162365516046697,0.37448244642436784,0.12493253337747762,0.1585048210098533,-0.09018561339849822,-0.0625903011246288,-0.25307104128623503,-0.395761393020737,-0.1665200938955841,-0.03756665421196109,-0.02467559007636501,-0.016853482510513402,-0.005453510533465578,-0.0002484234317507477,-2.4049726457639903e-05,0.0,0.0,0.0,0.0,-0.0007566092451732991,-0.00032493756917014664,-0.04827443264351932,0.5518357670864424,0.3602918947556322,0.40886407601456337,0.44678174637582796,0.23029713797340015,0.7044210688159948,0.8731758023107287,1.062305558174178,0.3164790174484038,1.3027773744833704,0.3588221583109987,0.23602219869664073,0.5919038604553858,0.8120925752411928,0.5632017956783744,0.9873771875962987,-0.2766900835703344,-0.4287681718290432,-0.45047426423882486,-0.15406449973311512,-0.0007457293630163401,-5.719897734846974e-06,0.0,0.0,0.0002616698443316304,0.004986692982444259,0.0982996038336451,0.2080302037895163,0.7691513018611884,0.6412410661596734,0.06896558192182617,0.7639705323784401,0.46527528730593587,0.6800426670958061,0.35283438017053786,0.39834489736440004,0.5114143619042633,0.09373482383727365,0.32117441680767195,0.46475803342724736,0.016222395909438015,0.5744966963451671,-0.08601886801161794,-0.11222251492896325,-0.18714606138335713,-0.017473197282348453,-0.935022986984848,-0.0989045685665452,-0.006541603099274286,-0.00038291994243589144,-2.409011986811486e-05,0.0,0.0,-0.003595433260409436,0.4246485635686562,0.6268719753019399,0.8694016092959717,0.4587266227047835,0.3176182054267191,-0.31676019041784015,0.3409931631134866,0.10693564966338372,0.05867941908922617,0.3277092379226141,0.13832998410936828,0.03918207542300425,0.04038928696275664,0.7963025361884477,-0.32629795580066034,-0.10719568542540707,0.29946361332731763,-0.175928476212311,-0.21976056080899534,0.07745566789096649,-0.7000735045593337,-0.21906150834836846,-0.05107609613693348,-0.006994249034189559,-0.00016620220915789405,0.0,0.007211447312783606,0.04201748655496619,0.35260805198209333,0.19602766397587276,-0.026304660228174775,0.313099060213457,-0.028432452790607257,0.3399638831837352,0.2166931691362731,0.650679015390221,0.06160272615255389,-0.19003791979211954,0.5853607955810001,-0.2623915640268312,0.4462795053609218,0.03597010819070622,-0.023080054832108902,0.5475068551388783,-0.2672394074391811,0.40803595287470584,0.33376498976225194,0.2010394448113753,-0.4185318097283497,-0.11021579820450773,-0.1281175371031354,-0.011098686163247795,-0.00041181619827615305,-3.123757287293531e-05,0.2044251948519975,-0.14672264804582552,0.1672167012354276,0.7536661218312722,0.6844766318422117,0.3092901647324689,0.0454806621891952,0.36856690699080336,0.023735440340002877,-0.07489750276261406,-0.11176908985748904,0.46067798043795827,-0.29211581880218906,0.5509711911053906,0.14342242707864594,0.11388045661914582,0.11630659679258672,-0.2542585008237816,0.3465491863545134,-0.16187031529250198,-0.6699802109319307,-0.41507947404937906,0.06406050389188946,-0.1983686053258895,-0.15661569642284182,-0.010692056976110887,-0.0008805921249854479,-0.0001269441791219279,-0.04616436410763054,0.019280027656155493,0.21006709142199287,0.5312751746530108,0.010881613572565344,-0.15768473547991874,0.25756965025813094,-0.46203824018600687,-0.16867277161550956,0.023493289333563202,0.020363836119230257,0.13452635597408538,0.1282170652064526,0.02626387071523986,0.08607411990912532,0.08256200019360908,-0.08936745297789032,0.5334457323807493,-0.17667455431322596,0.20182975130051883,0.03155634491377789,0.6887539752518033,-0.8450219025650941,-0.6312428185111445,-0.1700510850547999,-0.012682208264764775,-0.0005255494186523397,-0.0006399078538753461,-0.06458138634025902,0.20327844329817923,0.3141493525976599,0.8234154073859286,0.03664332142439576,0.3200923198109073,0.12306861156984347,0.1812495886640204,0.3815323647042102,-0.11140667711157634,-0.6518820574512483,0.09073082314420298,-0.42970670813077955,0.5073225209192789,0.5301363296937045,0.4661893850025723,0.1267510571149145,0.1410662765418062,0.42036712067475007,0.34501857554089355,0.2360445802105649,0.7671328374952056,-0.5665308981160337,-0.9568173124443387,-0.03887855789958663,-0.00924362727756713,-0.0009825065893245952,-0.0010580092862080505,-0.06482611839865604,-0.03877313497208511,0.6152443263146066,0.06522383388397053,-0.03451921549453331,0.40963047782518847,-0.10175185733657068,-0.25870518062322045,-0.9636714723684884,-0.3537730364776071,-0.4018188997446646,-0.5840878010079701,0.24003917853767057,-0.18341611617953535,0.007687501178305868,0.23517169616757708,-0.12890547396592722,0.3617557930911494,-0.013468643194679091,0.2804756791801865,-0.3291305007879011,0.35770031532075525,0.35681697824751635,-0.7299806030765288,0.11199134890604295,-0.008246040649904326,-0.00023620485385269957,-0.001660270533028573,-0.04895951167460767,-0.059780886614481867,1.148942725895162,0.9640220927965676,-0.06843564694528789,-0.23821422317143803,-0.8262620520726469,-0.19507561854883557,-0.3027398868056143,-0.44685724474212773,-0.18702852026857505,-0.1566130265643493,0.2911413425582989,0.3207838242760043,0.2091979248056646,-0.0621594269845695,0.5890827356589526,-0.13770112191853132,0.1324842476008783,0.28770077308199654,-0.07836362189536115,0.6000441965378293,-0.37728192057278914,-0.6388155703172917,0.2336802527383854,-0.006051528550536855,-0.0005914477741501484,-0.0014714284967760954,-0.032838045697437444,-0.09503570366801535,0.3891367515817557,0.10084659363265813,-0.2529732570505903,-0.2618897936991576,-0.22957257649631713,-0.6247910021148927,-0.29387139289811354,0.3744533275805784,-0.29863948933140866,0.28647980944902546,-0.23379516747026635,0.6005097573261293,0.11537928352676317,-0.04188330504170177,-0.12767362543355343,0.49357404076759526,-0.30924727511883027,0.38251402924810346,-1.053502025969499,-0.5675924427208912,-0.7898899057010913,-0.36611301377080385,0.218003523963902,-0.001334213217593172,-0.001190529656929533,-4.90128271585088e-05,-0.014097528840408446,-0.02634567328647019,0.3570134759365346,-0.46383661595842024,-0.3755721449750518,-0.38355207683545256,-0.3888225840037224,-0.17274547254418435,-0.24204704196779775,-0.33425748918929976,-0.1538762935946806,0.008736130010385456,0.5601572092935243,0.3023425473369277,-0.18175885514654974,0.32971777786760376,0.01865272882992984,0.035449392437955175,0.23856989565785322,-0.24736541890487646,-0.681300772279295,-1.2601604484200168,-0.4457395669185359,-0.07607445185481952,0.11010204991955633,-0.006867871527321029,-0.01631686239148699,-0.0123682574236538,0.06329014647049526,0.028232769364654926,0.37271606845709315,-0.6350109189382364,-0.9694568943560373,-0.2570103509717295,-0.20409484326621471,-0.06901308715778383,-0.027535176719833236,0.09537878755139366,-0.2840572309137884,0.3723539272542901,-0.25170722399653467,0.19178718668977263,0.02571863033945229,-0.13793964848945417,0.03293090722169187,0.2862634212363789,-0.6003028392013386,-0.32743855271550465,0.1585786356675583,-0.20626396398888072,-0.018461627090450627,0.1379645532674211,-0.08088003283996995,-0.04375882021084235,-0.00928297098063203,-0.004053003919869114,0.1345480897125219,0.1927235701310406,-0.007074648857512453,-0.1337425395473995,0.10419464568388188,0.04778794578941578,-0.6278248524746919,-0.22262380401336598,-0.36598195375344295,-0.2977906199931927,-0.033567337541421015,0.07381948511262193,-0.0018815815777565202,0.2673965266962953,0.2170253010770328,-0.017451676462549266,-0.13096260759361614,-0.2572086720199569,-0.06661664442001294,0.7750305825600703,0.10993150516663742,0.2798017623791192,0.9106022053415203,0.6906890422691984,-0.31468549319789374,0.05271414146200803,-0.001024202248076162,-1.8402946650642685e-05,0.07045305409804178,0.5186464300093303,0.175841851285761,0.6855968755657853,0.47370597102587975,-0.3417922142606143,0.02919501389332077,-1.225139585808591,0.14047306513971894,-0.1767222319962748,-0.03623337672603839,0.009805432487536498,0.425685233445792,0.08375820984223319,-0.19239104095924794,-0.4240333106676968,-0.10071188777866993,0.34886779939324336,0.5218278771420314,0.3593671539810386,-0.16652215184138758,0.15341373643758155,0.3206270352733784,1.5336130873025506,-0.4562612507566728,-0.02288820744426785,-0.002899516877145627,0.0,0.022689068711364904,0.4950063032169653,0.5198170477687172,0.5950461167204918,-0.1298469130503137,-0.1359048332181215,0.2606027588347651,0.011786630880878382,-0.6982031660570124,-0.4032947475385328,-0.6240488980663257,-0.23488162865615247,-0.06921764926269795,-0.6429906855103278,-0.28893824320934675,-0.021583092520098546,0.5654564799993853,-0.0428256835062933,0.4594606326957609,-0.411986616431447,0.29464392886202345,0.07154671947062709,0.4818799943485003,-0.4425445282999766,-0.7543074071900937,-0.02526645727461454,-0.0015846014852076134,-0.0012204631920029261,0.0014597474592554312,0.25046143400053444,1.13122531968062,0.23687252810597387,0.5200753989107758,0.6938579877910713,-0.572835551777553,0.08032608673625394,-0.6838425790411333,-0.4339207198708178,-0.06614481037064725,-0.8121543728971246,-0.39579614851370537,-0.2737914865098955,0.27963195356889864,0.5082849822903573,-0.003069371533647166,-0.08205577223071911,0.2741863213591122,0.08524365212512572,0.3629254357188075,0.8967451324029413,0.09479789897439815,-0.6724115763894954,-0.3456914996093238,-0.02646908965996026,-0.015245796450296206,-2.0430070990646137e-05,-0.001927809445269248,-0.49095800550476026,0.8549336399641344,0.06403937634237236,0.9244535614927202,-0.46864988361182236,-0.18561273414246915,-0.062197748126567476,-0.10541389986806045,0.005468250114307838,-0.4671804745144611,-0.17614704605759837,0.39129901110478393,-0.27193624603583605,-0.03601515471784846,0.22953113636426206,0.5471918754478937,0.18869219008832158,0.6039419394334371,-0.2452732648880425,0.2396935289571236,-0.192847909213485,0.36143055410445313,-0.11619483691028842,-0.21397796298818597,-0.031393317571318226,-0.0070197463747394525,0.0,-0.005563109251316744,-0.2834878202182647,0.7466562408580419,1.0386715935931474,0.041949631834426196,1.1092890787417566,0.4414169723315367,0.11394402593638274,0.649220871273459,-0.15536881810690914,-0.13619053087328142,-0.6160327095866097,-0.12371801556759551,0.33411397462403103,-0.17493238530286256,-0.054552637201937586,0.14554801070562048,0.2687641857345013,-0.40044037789720394,0.9728277884462817,0.253820565189736,0.013509182378575109,0.761756969164552,-0.04679456483069204,-0.1729928383457322,-0.004715140443659255,-6.12123657605823e-05,-0.0001826992725908598,0.0017899976276738573,0.14169606295279613,0.5278538044511123,0.26028210483901565,-0.38967080585244496,0.4203190344398696,0.025030233772112054,0.4280601772777075,-0.7369410330761824,0.05067302021733912,-0.12930177271625756,-0.06798050887007023,0.10314269843318018,-0.09953919468991639,0.36272995783262335,0.2621317400983168,-0.039144158384398574,0.2943172792093189,0.6777538307091528,-0.4590157205995596,-0.1883382548423159,0.10922738801226409,-0.28643117186229927,-0.744036436164689,-0.1301226897097657,-0.011811359973772686,-7.037294779819854e-06,-0.00017698992032239523,0.00017823300777788448,-0.057380155037256526,0.49819565388460274,0.22016079317532924,0.08067791711980664,0.2799002776868406,-0.016529527706613457,-0.1508135746092487,0.383126826510737,-0.38366846578883756,0.5807847012027012,-0.4129663008718342,-0.15826825629339525,-0.31225707069741737,0.22863147553680951,0.12243249773333326,0.31955348159184344,0.09087232752215885,-0.2444020367285624,0.576812561671244,-0.3450136251282242,0.5509328169491253,0.10512539870727736,-0.4286479871992539,-0.11127541733809199,-0.0014198840278136025,-1.2991928824282742e-05,0.0,0.0,0.1942360359520385,0.9957919497393449,1.0086427083710259,0.7792664276467611,-0.032555435694500666,0.6300905218427695,-0.05214141467557943,0.15714201879991063,0.318112392671998,0.3922645913867782,-0.3706527591244776,0.8156242591654747,-0.32284511211478306,0.23908258698206458,-0.4225614686807016,-0.039540069570250386,0.6965370187002806,0.04144542499883987,-0.09188769970649498,0.10076491869227072,-0.4480916565974929,-0.22106165349613477,-0.1498334701439175,-0.10642452346455251,-0.0013558901325856664,0.0,0.0,0.0,0.03046124563689314,0.5575672757493982,1.0272339037853877,0.026401666441835298,0.6501821654664681,0.7147432643807414,0.16019009416389401,0.06483836565773328,0.28642274937964984,0.5660028426288986,0.07223361562865589,0.17415347963122457,0.4332193220489218,0.32044343524773106,0.24819076596957088,0.029189868168782072,-0.39805137393332707,-0.29037938839321886,-0.280584354893502,0.5345705382849609,0.2918907504773224,0.018490767461603462,-0.16977735965372567,-0.02107953361711664,-0.00011124758890418077,0.0,0.0,0.0,0.0038000101204691285,-0.4901674807939365,-0.26966033198076456,0.2200169532441755,0.718954415016094,1.0316872467360592,1.4686789151521904,1.0999219259627504,1.0596017812543126,0.6286192136813494,1.3686791869837176,0.8073222277518218,0.4808408168448256,0.12205816920807568,0.5248680131959604,0.8321989957472559,0.6667712123014876,1.0019197037467336,0.08031365003431727,-0.3207206641405972,0.06285225229777568,-0.034312751606498305,-0.0025591870914796846,-0.0004729123672057612,-1.9440893841959284e-05,0.0,0.0,0.0,0.0,-0.0018443466550393905,-0.00041056710531391246,0.05039385122208955,0.04684401717938505,0.10594776468715356,0.027106222025795337,0.07604031295248709,0.42012447287655286,0.2451022355907157,-0.0038843614697974325,0.607916963233817,0.4967014297775269,0.18944289841403145,0.712902409650968,0.641614548350932,0.17487145273553661,0.08163244756861429,0.26227556805577884,0.09357965126975608,0.0033851940577160843,-0.0036005468658739568,-6.5606686248828635e-06,-6.992603664802993e-06,0.0,0.0,0.0,0.0,0.0,0.0,-1.728278196449699e-05,-9.144125136234115e-05,-0.0003318396469625282,-0.0007984820344436642,-0.0011947167403863084,-0.004837145570278156,-0.024674994420208755,-0.013921421992881936,-0.014539412270548212,-0.016769871473525374,-0.021755491477477486,-0.01800109273004668,-0.03799903046311291,-0.021413948535257046,-0.04519369948246213,-0.021542424540538677,-0.002252413041648889,-0.0006117870391512949,-0.0008731452959931109,-3.0345999438085106e-05,0.0,0.0,0.0,0.0
0.0,0.0,0.0,0.0,0.0,0.0,0.0,0.0,0.0,0.0,0.0,0.0,-0.01003795801607006,-0.02212656742163737,-0.00016347240730501243,-6.811350304375559e-06,0.0,0.0,0.0,0.0,0.0,0.0,0.0,0.0,0.0,0.0,0.0,0.0,0.0,0.0,0.0,0.0,-4.689993086691532e-05,-0.000137768546921564,-0.04981666536641386,-0.20162109407306988,-0.3486190213236819,-0.12624836071127626,-0.09800875899747197,-0.13805456875596328,-0.39887038738110264,-0.23403060201308992,-0.2958997122910203,-0.42864688666585476,-0.3384194068915322,-0.10521434598331227,-0.04840666045080271,-0.18111122325535564,-0.17113863837670532,-0.10648848540956496,-0.11298502026319987,-0.009134409016434626,0.0,0.0,0.0,0.0,0.0,0.0,-2.7629759002228702e-05,-1.9839603162428722e-05,-0.0001302612650760654,-0.00025554538093239374,-0.10282888523339583,-0.2826198585604618,-0.5484139189408419,-0.47351785941859476,-0.7638102066825216,-0.6676153507821028,-0.8423545898418078,-0.5406618028627798,-0.7499840777176835,-0.7502270108039446,-0.4954591829791656,-0.4508753561642861,-0.5525687001848106,-0.35497352731614196,-0.3151757420291087,-0.3008668496827785,-0.2533002620561446,-0.10351687417758484,-0.003344665669216616,-0.0015906686515026025,0.0,0.0,0.0,0.0,-6.539928677838381e-05,-0.008824693598886046,-0.016386250409528524,-0.00229020303407771,-0.39703821804720385,-0.6567110861163666,-1.3905677859416463,-1.408008358596748,-0.6534847935715656,-0.8797075804014617,-1.243688115444662,-2.0472325817623602,-1.2055788515830985,-0.48155731362253124,-0.4444201421739115,-0.20207777309722955,-0.7517677350100987,0.06613794003203124,-0.05616961568958731,-0.1131103349912601,0.039302977429693485,0.04009513610532998,-0.11170359685459738,-0.00315772482822951,-4.427083718332635e-06,0.0,0.0,-3.994987166254901e-06,-5.6714720992387036e-05,-0.010551744710249228,0.2272150762019221,0.05185051619098258,-0.7791345919886894,-0.20225428473123883,-0.6897729316550444,-0.18397277047550026,-0.08329679532786691,-0.32074800522432934,-0.3454497875263642,0.13348661811407844,-0.7459309286692452,-0.15386147800666883,-0.10666609010199753,0.05362233673578609,-0.2013357045917172,0.2377203285186223,0.849119680097497,0.9409403475753257,0.9561831434247069,0.7570432373298012,1.0362709451958791,0.3564883895717415,-0.06869208355001352,-0.01832171400745246,0.0,0.0,-0.0006271031676193724,-0.019499582466586736,0.2937227070269466,0.1663281130771561,-0.4133849601287142,-0.050659353066126046,0.14028054424066855,0.24672669357648347,0.09014339955638274,0.07717242157429009,0.5056056961465408,-0.8376359825793568,0.3076505475723893,0.2714059975099502,-0.056642404871180205,0.010830811291153207,0.1691787879531291,0.552979420973135,-0.14599870587131158,0.0421438741080881,0.18118221727645722,0.7409208228917763,0.40633802380425127,-0.1861049426136517,-0.18085151243508532,-0.0015542134700477106,0.0,-1.0622328159756772e-05,-0.00795434564224919,-0.18975387409498426,0.3787499227801059,0.3493963108760602,-0.5169004600021929,0.1450791893757766,0.011808323309528806,-0.11031730596313685,-0.33508132118969913,-0.44121960013191736,-0.1948702322571154,-0.4508136733007496,-0.3919140292163627,-0.9507434269660988,-0.3838683509554708,-0.2450954752186303,-0.4814836390644802,-0.17203310543854286,-0.44800116506461557,-0.45975395343773345,-0.15380266518543967,0.7259405786353157,0.08135107171551877,-0.25840535788028934,0.1717076088934705,-0.010348728756447321,-6.682744638643137e-06,-0.008893971991879418,-0.011728169348070427,-0.20645834357371912,0.2648114370052059,0.7899620817373865,-0.026201067284343953,0.24160489163535545,-0.14446575976455103,0.2020674269621647,-0.4717688579369311,0.08398064007936618,-0.7254937795064901,-0.3591730972039247,-0.43790269417001326,-0.3092942199403194,-0.33352318205288217,0.02410711337058306,-0.5314097682194481,0.16124796863382354,0.13064485454935168,0.2553660400577704,0.3610567350920764,0.2832667850158487,0.43834449352156774,0.12261230723383304,0.11973312128498936,-0.018337454441357887,-2.715753672299649e-05,-0.04287583542750167,-0.022759477044544767,-0.23082455312395023,0.06668762436472347,0.7257139757220753,0.14063409665030813,0.3540688492175653,-0.20900776485851733,0.45206680304798824,-0.15845260416410423,0.36403512102527613,-0.47705647578826155,-0.07915548787898478,-0.5924969826373828,-0.13657105179087348,-0.7303134559982314,-0.30595042852627063,0.22036715209906174,-0.6974915141594202,-0.04375032032798663,0.19573216336793572,-0.7477986636053557,0.31055087510655277,0.28402376304230226,1.1255799861250715,-0.45243583266846155,-0.08744164356492051,-0.0042207484230442835,-0.026451885854267016,-0.06457576706093941,-0.7287516351479287,-0.5561232301934713,0.2571503288516557,0.07922103417377037,0.0019099682894477027,-0.07125553598551256,-0.40628595195682776,-0.43271195558531467,0.019184536953417132,-0.22739959457062142,0.02229530673327609,-0.7452338243476989,-0.23377654335041376,0.4108583060569007,-0.23704871593124388,0.2761479134016855,-0.07250758201442764,0.30176172978018834,-0.22509864000763397,-0.2376133934813568,0.6435873494862963,-0.5747929547322819,-0.437235030295687,-0.30213797491478267,-0.03443317031814042,-0.004924337702810728,-0.020404281680136395,-0.23483559920073033,-0.5458476551958212,-0.5562473359704174,0.07318085843802319,-0.9661204014262386,0.07352589895767395,-0.03028684196273097,0.23679533353712445,0.015674266210730217,-0.04800297390528556,0.3952930011029363,-0.48318728618618056,-0.946797457780535,-0.01241510844783272,-0.9174018903811575,0.261568462736967,-0.16285378669772477,0.29945206221765036,-0.35928249925820405,0.20418960499596764,0.1679932475115239,-0.7799106458161204,-0.3969051095992294,-0.18545075791940804,-0.4043432912350973,-0.010683368399495064,-0.0005932187618148612,-0.06705946763032583,-0.3734500393878632,-0.12798068819874023,-0.4975446397953237,0.2763126967262854,0.3265666560116017,0.03538670626077429,0.23853740399926043,0.44963243404123776,0.7535460787421929,-0.41147596676973014,1.0163195958582292,-0.9714817481723319,-1.0941343559024608,0.8433008776621442,0.5438049414584347,0.39903590218181584,0.0744605626454025,-0.013925356285097786,0.014906465912288886,-0.47592776441327195,-0.5779798675114876,-0.6963352193760018,-1.1753885100827197,-0.7105831735095139,-0.1773188209302822,-0.00656532039168566,-3.616136280339837e-05,-0.08805592847419803,-0.2980534405381125,-0.6569254667024015,-1.104406658650125,0.16402033847900127,-0.028588786616554195,0.5018653521115841,0.29872399781152426,0.039445599920337866,0.6325058990912854,0.4808056988954399,0.9167164473364325,0.3015398774749982,-0.6514977494695576,0.029763465942495158,0.5768995040001291,-0.22131397805589592,0.08980270192798358,0.02096520020154668,0.037119275013825365,0.7432777313919104,0.14012664954375437,0.276260793573762,0.2196858719963946,-0.3216789709208309,-0.12511132080349235,-0.07005743631718475,-3.345040881281172e-06,-0.08436515055757267,-0.14560530629796367,-0.696563341847165,-0.30354320341648217,0.2568471301775496,0.3200171753735822,0.2115081984001066,0.7346704106923053,0.5223759041941961,0.7369432095301636,0.5338999405280631,0.7412623457509498,-0.4311958438849899,0.007402842334351566,0.4608693381096468,-0.028573819200719067,0.1872123933212355,0.5117791574526428,0.2137308373936546,0.41597495767083814,0.6632263191409796,0.26956680423589957,0.25504823320659226,-0.5370654456174526,0.2055418086018628,0.04126156887632733,-0.24500690287691687,-0.000499664042376467,-0.05669382662333722,-0.12120844185777377,-0.02958258479324083,1.4650967468509106,0.7613239418669161,0.45121900665382814,0.36517807133032015,0.41815771631247256,-0.058390650906814466,0.25057049192331654,0.1802551411620264,0.6693955038393712,-0.4454587767088377,0.2062287184629569,0.17910432102815962,0.4118069388265948,0.6851019564455515,-0.03987819033828248,0.7363022644715937,0.0040274441676391125,-0.16305209616533178,0.3799359880356454,-0.326095930921524,-0.5348492282472352,-0.24524429319138807,-0.43763578479666987,-0.026686705457493833,-0.00017299287277201667,0.00023541429540879555,0.010060341057534289,-0.03112530966351413,0.9436106001227003,-0.27921888213664137,0.4392749651866935,0.33128681145516425,0.12702556622041095,0.32551805179468557,0.6190175524998806,0.34453269429524214,0.22497984528617965,-0.5246739462615329,0.25728074467669465,0.3245792457238992,0.7096031428404701,0.4795102153783399,0.12730627404893258,0.4309416647763271,-0.4271183406666224,-0.07715000489025375,0.6775742974346249,0.02489253630762154,-1.355678137362162,-0.7131840864912569,0.09687963165825637,-0.00013747542653331696,-5.363464249347916e-05,-3.534562341888834e-05,-0.003503129749096425,-0.4141692201455424,-0.621655100034259,-0.17721572193773655,0.02508037304891753,0.5720187083223851,0.4722271540836573,0.046980599170060255,-0.08442479212517988,0.009158770743201077,0.28164894628570947,0.050820446707303915,0.0022860236615436583,0.7666541355435188,0.27361668476600526,0.3231389552423009,-0.02979477606874286,0.24064968819467633,0.54771448723318,0.0724719414358892,-0.41606770743865196,0.18027929227222772,-0.33572329114996724,-0.7217503471011933,-0.17811129496040526,-0.024868043405708584,0.0,-2.8872497340959157e-05,0.231904771360335,-0.9228676849602562,-0.281832815100084,-0.26904421556185293,-0.5028915337192571,0.2568339428254617,0.08620307662817794,0.35658538486749847,-0.347707965020258,0.17794817752184466,-0.2704118444150239,0.2024840180858168,0.7571693580272206,0.3697608696626369,0.544907965482194,0.3010225916532951,0.25485461957165007,-0.31659847996392443,0.18724309551639814,0.24853004974297657,-0.3070862374576911,-0.23034819782576324,-0.7279437572194183,-0.76929468537824,-0.17615679381745827,-0.19553276705182018,-0.005448324468113187,-2.5854003883857808e-05,0.19262948591435575,-0.28757902949482345,-0.0985246431077953,-0.10120590545680606,0.48023527968088237,0.09058044486437052,-0.2908775090599285,0.3955042543229319,-0.39744213660938243,0.08046427266820468,0.1629090180486846,0.7319293610325001,-0.008368447614248372,0.054772813528866496,0.1330141216944418,-0.4518512452306751,-0.05827779750417639,-0.19089187806569,0.05422595123456493,-0.03459011900709185,-0.3994966259794976,0.39941001935229015,-0.4279216162657202,-0.6685009229785807,-0.06153030496693593,-0.00011459552387306573,-1.2366715535296194e-06,-0.09532041617019599,0.15770913327553485,0.5266244859980652,-0.12294708660930236,0.05534077965826226,0.064026710078319,0.11226596936455714,-0.18429131093420617,-0.6733165871022152,-0.6333795549936964,0.29936397274856563,-1.0191978008001672,-0.28384992564653544,0.6998864336473616,-0.06806131054019868,-0.06995941799072035,-0.32032283182613935,-0.015282612787280467,-0.22801780194113258,-0.1383757391620788,0.32095437707594454,-1.2340194485731477,-0.9130646726477569,-0.6759440745482618,-0.4387526292163844,-0.006200591687627032,-3.9497753626448307e-05,0.0,-0.0006787845982075828,0.1296354449999895,0.19975251957394274,0.24699165951849844,-0.5267835654920539,-0.2849128264055914,-1.0304855064118792,-0.9677991053351775,-0.002022494406619647,-0.9741210169846676,0.07570583267054062,-0.25401330293895835,-0.35012110438974414,-0.19493593530539535,0.34570111773830237,0.8181558066518994,0.4421615314682524,0.10707122871937827,-0.5092306319984632,-0.17475093801777836,-0.1868166201553618,-0.6442553758768103,-0.8093498245166523,-0.4958955837196308,-0.46574947485224294,-0.0011342770441010901,-0.00047362763181171055,-3.2360626575932544e-06,-8.890963792233476e-05,-0.0026047242737280586,-0.19072246400491075,-0.2082118537877035,0.42556097086938327,-0.5969593714504964,-0.6689763546519751,0.8765443690997735,-0.039611397608636634,-0.20355008965242988,-0.13675543329784987,-0.008108060134161649,-0.5069094151987632,-0.25492460309554293,-0.03425773862143178,-0.76935537142097,-0.1315594577375461,-0.6654619917020999,0.12025391324695801,-0.20623979388506786,-0.23023333782005978,0.12482312144333493,0.03699436342520545,-0.016676857112822283,-0.4206878912684035,-0.01946468778126357,-2.9427236846237662e-06,-3.1349356995434807e-06,-5.385527359684903e-06,-0.001313250818122467,-0.29765478658173167,-0.452428435810161,-0.6112948930991962,-0.2515874183505167,-0.5578217412478511,-0.8107258857206876,-0.7623701141131813,-0.31748009742302613,-0.15074844684344638,-0.6037481988814807,0.027731072377304336,-0.2773322059585246,-0.5540052669119759,0.041566586070224995,0.16162400760726794,-0.12233251025230157,0.5205937783961919,-0.44773885652782547,0.7059724385319149,0.2764709951489405,0.141206306920648,0.12517119011786937,-0.3056180679771687,0.025660277862334446,-5.432720648536177e-06,0.0,0.0,-0.0007777333279673873,-0.04941505758552655,-0.2723914298490909,-0.502255861269048,0.019961485416083502,0.07398092969057589,0.1066452584312246,0.2514264865868551,0.08993872574841752,-0.272183691527975,-0.05613288890258911,-0.2734928626234335,0.0851620725255458,-0.22488091934815854,0.19963777508570654,-0.14953129992978703,0.2842280943738593,0.06493932072268553,0.22562173830706844,0.4368188901091363,-0.4971614248267358,-0.3349977308459091,-0.2958177574894656,-0.005587578430725944,0.02766519716020533,0.0,0.0,0.0,-0.00011508017752275094,-0.0033005329473424854,-0.10166742271042685,-0.15605983810251703,0.27452768181526255,0.2545159288473347,0.31660806330943847,0.06572105516611147,-0.3295699098454113,0.875578589867582,-0.20736927002403954,-0.19344613830296933,-0.07647614462330632,-0.41791137970968883,0.049402274050879984,-0.1853473709636965,-0.2810171778457626,0.03715322651956796,0.321052572988436,0.08301838059933803,-0.12778804207064381,-0.27428742695789576,-0.16259956705913844,-0.004745486889099568,-0.0004654255620869675,0.0,0.0,0.0,-7.518547455042114e-06,-0.00022396383102377433,0.06602120194772342,0.0688166463520325,-0.3267597139789026,-0.5410670636948629,-0.5081649639379812,-0.38430615563000553,0.2352397757088234,-0.13590420539264705,-0.5858950832788955,0.007012382939365218,0.1393423957002954,0.03867755437914619,-0.3428649048208742,-0.2988043096331781,-0.08942507807865754,-0.6061967088347532,-0.07274932660400192,-0.3734041032958635,-0.1374594646120325,0.041311409675012435,-0.11215673432560128,-0.00227961787967419,-0.0004920932450864622,0.0,0.0,0.0,0.0,-0.0014553412465779416,0.03476321231905804,0.3431161909622338,0.06650421982474246,-0.4994199877174948,-0.5633519077629926,-0.8270102024821301,-0.855593283238023,-1.1862252424650475,-0.8537162220659417,-1.1143990735928782,-1.7273265009542087,-1.4439942576102571,-0.9659671598262218,-1.0478037814751526,-1.1660603160061531,-1.0968449182631883,-0.6855150853474902,-0.42788284310477637,-0.31258603937512197,-0.05251558801905537,-0.0067261626725954515,-8.324767949585781e-06,0.0,0.0,0.0,0.0,0.0,0.0,-2.387572286958199e-05,-0.00016114991216592824,-0.03947493069500946,-0.22520103278361697,-0.21966052599291527,-0.07477729841805872,-0.20212286485326597,-0.11175916097703756,-0.1657764270820833,-0.10564379602002061,-0.3829077446232623,-0.22746994859728326,-0.08603360400632838,-0.069436272836341,-0.09140568149484428,-0.06649191524038368,-0.013472177163771032,-0.029403939831177856,-0.0864432409023136,-0.019723356164967402,0.0,0.0,0.0,0.0
0.0,0.0,0.0,0.0,0.0,0.0,0.0,0.0,0.0,0.0,0.0,0.0,-0.00019272780172386106,-0.0004395681534597978,-1.9541727629721437e-05,-8.142386512383933e-07,0.0,0.0,0.0,0.0,0.0,0.0,0.0,0.0,0.0,0.0,0.0,0.0,0.0,0.0,0.0,0.0,-1.48738202104112e-06,-4.3691846868082754e-06,-1.3605089176197677e-05,-7.261972479744254e-05,-0.0003794034636026947,-0.0005295892520905847,-0.0015275342691110888,-0.0017343295015703852,-0.01372604077204302,-0.014178876084296448,-0.011228024753887667,-0.013744130033259154,-0.015227459533559154,-0.007944248974902738,-0.01282814810742255,-0.011359523218679975,-0.005604044925584532,-0.0007913518197920392,-7.052834495000328e-05,-1.2110867389695907e-06,0.0,0.0,0.0,0.0,0.0,0.0,-7.23189480551359e-06,-0.0009418940871579042,-4.151007476199743e-05,-4.002124260676467e-05,-0.00021602231313122422,-0.0018252154129335387,-0.005088167186192608,-0.024023961068095134,-0.23682274173384923,-0.5344281479989255,-0.44379734299731893,-0.3815664907264822,-0.4183985756808527,-0.1690842681433959,-0.034877282649866365,0.5285403865882741,0.5392469407088593,0.14558836876507786,-0.22550190234693063,-0.29467536588678767,-0.16581761708308268,-0.059172790818259484,-0.003813415447002324,-4.673229836544767e-05,0.0,0.0,0.0,0.0,-0.00010524326433296328,0.00016699787957437964,0.10302985740035887,-0.2733865871944109,-0.13834078640813746,-0.04022226171797411,-0.0319141140949765,-0.13312996679450864,-0.1606066795731876,-0.5176930875451924,0.35298674079527936,0.3457494360004442,0.1960824809502762,0.4563402866480001,-0.10064630438136503,0.18130812559406323,0.35722781025367994,0.2769180843985704,0.2989386593588411,0.7621322443448012,0.1548683889348712,-0.137033881567802,0.2936356720471292,0.4441660948327934,0.07209073956203596,0.0,0.0,-0.00016674121624571272,-0.007687683541078718,-0.026209021635060527,-0.1394127833890635,-0.7629750755102158,-0.3404528788582126,0.11934352317002107,-0.5070187863066109,-0.04239858551982372,0.17792344272635938,0.27023160340360436,0.24472077133908673,-0.6802495498983478,0.3224325897419949,0.5281136180178777,-0.22176549872884027,0.24050459938654908,0.6471808403254806,0.5219894721081145,-0.6537695135971962,0.7392471705962845,0.2205868689179916,0.15864320803757959,1.149870899702265,0.6739403988603855,0.12585832915078027,-0.014529251050719503,0.0,0.0,-0.0034170210654626554,-0.18871046968697106,-0.8509893706855758,-0.6469496656299769,-0.5231276969292195,0.17367301400232021,-0.4021213972115164,-0.38931834672857446,0.4423848421485242,0.14378014634683273,-0.25659765890240316,0.07081388144220047,-0.07473441174783857,-0.28557845456273107,0.047521652260548386,0.3861985141217498,0.19343256746431317,-0.32996111225155556,0.6650359235477855,0.14734980901287614,0.1744499158625824,0.25807354656339265,0.3052982964450741,1.003843284889619,0.36168375488136784,0.0500978847242506,0.0,-0.00021712686403716419,0.03680994609771324,-0.479285084556708,-0.523389340068554,0.3807415252750731,-0.15060381110516355,-0.22059283942132188,0.1610876520741809,0.09301310775681461,-0.021014854952627594,-0.27474171880726767,0.1609759309538774,-0.19808710778232844,0.36792605309479365,0.05864305133727546,-0.31341780847821354,0.056320466881602194,0.12342447376439832,0.5078955986104796,0.37478090305090506,-0.43134119377057745,0.4965510625309401,0.042782354980902056,1.2503579573590644,0.869422828868749,0.4643383941023633,0.1376540086727239,-3.996137291423877e-06,-0.012984996629241298,-0.025433178561360365,-0.44094905622822406,-1.3605634504918946,-0.15851054688638194,-0.014085044705435259,0.31318139281711876,0.7779916390063527,-0.43927713889943093,0.5731350388707216,-0.01806960299414879,0.38541506165106687,-0.47463712416698056,0.34408600884361756,-0.43281470265647237,0.30080113271855274,0.06453405979141211,0.0888484997911722,-0.0559118225054278,-0.024759807192901145,0.1593098124952141,0.6987331785664763,0.29044837166761905,0.5720569491913036,1.2580947491594172,0.3014765156158122,0.007723008206199236,-1.6239621758765108e-05,-0.0037427204266644756,-0.0472705311701428,-0.5139822615351205,-1.5885369960804867,-0.14188488253501566,-0.1812305620838121,-0.7820264095313488,0.06572599466824632,0.4047037183507931,-0.040037497064095935,0.15828604805661098,-0.10963895994437363,0.08866350346275052,-0.14026643682030815,-0.23225391549346958,0.055049917466022044,-0.05908922043614932,-0.13211406758053637,0.1693382865207528,0.3889941966890786,0.11429165738711915,-0.2028685980728119,0.9751350677669172,1.5998775915607029,1.593806462831439,0.5844993508558113,-0.1096048582222258,-0.0002583473219156742,-0.004155133025850471,-0.027524096427733784,-0.5705499743178049,-0.6775098690864086,-0.2425491901073183,0.3296109780663842,-0.057184672282631514,-0.0384181169755257,-0.13656611516308384,0.008652880160396911,0.44414654895691696,0.19203719091830998,-0.1764295655405093,-0.20339656096644357,-0.48166055881134334,-0.46402318652719005,-0.1478684925432052,0.16404351906565018,-0.18139390523016402,-0.12966043742104913,0.45432573694916145,0.8449899249595171,0.3131295696054569,1.605980588827739,1.8594562406574087,0.5666537329992282,0.03342787693007359,-0.0003178766782900785,-0.003654803075226779,-0.046404925969583156,-0.5703506012312408,0.25869856998771246,-0.03538951233152072,-0.4002686942874197,0.4653458438958532,0.49174946701609734,0.48843083100336343,0.29326460425176787,0.15246331518282846,0.3138901781397795,0.4101543146018183,0.022592121936660953,-0.0774281865109985,-0.20778123899317025,-0.6187192468935764,-0.5104602595743267,-0.19210053733243868,-0.032874193475481026,-0.04085462157766439,-0.3044933921948989,0.6593228364286585,2.6131055095611626,1.7218027121564923,0.8133249257738693,-0.02177309679333338,-0.00014463990852921845,-0.028668966106368217,-0.055733500258117935,-0.9371094646837393,-0.1234479675317548,-0.2672279373764679,0.22301353854352504,-0.11803107962645813,0.09301864302446511,0.21079175930887606,-0.0037552617222947025,0.17389733220626177,0.24044897479403474,0.4104510291428242,0.059594434746910056,-0.3196349149013875,-0.10756314993102618,-0.2780727914868898,-0.19871903965877968,-0.7992203768730158,-1.0056752672854692,-0.385335911130475,-1.097186214094263,0.8183372918284335,2.289568224135684,2.2415553679987386,0.39661504153683164,0.004171683788645762,-4.727844575071941e-05,-0.042908309077463944,-0.0530904003707961,-0.32297014290753767,0.007788930595822038,0.04318340122591677,0.6611987084542775,0.012004135748800191,-0.0406289405995267,-0.13312935668921,0.33546745027603453,0.216620895924305,0.13041635058831366,0.29218435887246896,-0.16080405607995826,0.03539993930336633,-0.3860264085150875,-0.408407361389215,-0.08346487222437912,-0.16621588414067212,-0.3961899326614707,-0.9012455432241627,-1.804190210529297,-1.9654432516626306,-2.1514878420571852,0.3332141147039803,0.7336702972470179,-0.014008895743902511,-6.854108868053307e-06,-0.006202054070063719,-0.013061764019478969,-0.07883437341724593,-0.042318510612570824,0.6543257609325447,-0.4894652776884723,0.5075550664346,-0.35495230797041555,0.12090144996345872,-0.033702779067869615,0.19685492971492363,0.45783773547139783,0.40752948615771,-0.07400041730062712,-0.4366060515828715,-0.45522445261191163,-0.22428950354956878,-0.19017680821412022,0.11686837146625506,0.0347428910118899,-0.40714934933828373,0.24470030873026277,-1.299935455136362,-1.8020681069232647,-0.7210588156166013,0.06059298560180916,-0.12010169245325857,0.0461382666693651,-0.005356322558338021,-0.005361524826487575,-0.006136162485582402,0.13352223829247994,-0.36216369838893353,-0.25575013957936754,0.2214313351005725,0.22463375930516677,0.09084362997187292,0.48155977139341816,0.03805311953897614,0.1801887059015996,-0.11883823472430965,0.04826067961413279,-0.06178720979575197,-0.370220907046457,-0.2815553414652518,-0.38243473671542483,-0.5013376470020223,-0.004923120592515738,-0.27356766831099444,0.12744274697266275,0.2826697520937425,0.22186113993641068,-1.1205365080667595,-0.09533845098851473,-0.005261731367162634,0.014917112232739041,-0.008297724061345919,-0.02447456235815964,-0.15737494855736028,-0.08519224043061145,-0.4530745333602029,0.23540114400309958,-0.5703466419864631,-0.3683713854679088,0.2745574509740384,-0.0005739752220125684,-0.030243940243987855,0.15326293420169812,-0.14672591945927843,-0.16740445964561262,-0.3485606780915348,-0.09981818680259592,-0.49735167953278775,0.7096005915251171,0.21908745775632102,-0.08068151333949118,0.24206618909730923,-0.5794695271105607,0.08977769479316826,0.8188165658442417,-0.6609663712938095,-0.1634212516845434,-0.07070364537489755,-0.001086330440809113,-0.004483449139992632,-0.13174172894668357,0.23431081305588233,0.15296716922109332,-0.16951196243435235,-0.029519534570910822,-0.6927345849700006,-0.055359559283215364,-0.46337613053397814,-0.052861097699994655,-0.11753941844135173,-0.0794792107801992,0.08653931580063175,-0.63252623064012,0.1657589850799003,-0.7038729906852416,0.06736151426795617,-0.5523060761083536,0.05533073037555761,0.15871811211978504,-0.24166117646448723,0.6791294813582532,0.2865842081018196,-0.2047222115194548,-0.5147664038446993,-0.3271424128354329,-0.15398561688226425,0.0,-0.0015721872727075129,-0.19447263427172015,0.7263877955294097,0.30567239794166207,-0.022970844710698452,1.0167005530836895,-0.5533282001825779,-0.34503233423938595,-0.2889043638927334,-0.4093078490795032,-0.3118411950725131,-0.49807563665584037,-0.4240590429953895,-0.36351020574614396,-0.004528030006052925,0.1291944106919493,0.4247682447308629,0.49117603072411137,0.05001288053064458,0.22256141116255213,0.2762622038248016,-0.17758108816858884,0.2294633034971671,0.12664781580946533,-0.4084793423401962,-0.11482507172278471,-0.01806308521631432,-0.00015721540590888584,-0.0011003756142097512,-0.07358588296016928,0.1988556827043315,0.8106716787498952,0.4446474191014164,-0.08069321954867083,0.5162029202807352,0.058944417455175674,-0.4082425369873473,-0.08915376247559632,-0.061596881483694445,-0.15329784312568873,-0.06264056538820688,0.04267003205015436,-0.056607845006717374,0.025222659915746383,0.1827879208222544,-0.49277111411105834,0.5560606422510893,-0.575004718643769,0.2058154493964448,0.22098038931809916,0.4902268641369601,0.3373446476114747,-0.30668562334818184,-0.08181487414496717,-0.04972663212078957,-1.5538166522397367e-06,-0.00369300371022672,0.5342513221824816,0.2919867151194806,0.6733092537937431,0.17617705237787398,0.6790759955900819,-0.10829866463899801,0.29504689807600987,-0.031614547699240395,0.19350084833637457,-0.07137532376113692,-0.05613349988412954,0.0451732849842211,-0.11261781556013967,0.32423674206858777,-0.31987787035042714,-0.1564729663376647,0.16448450981588444,-0.33409410462605205,0.4628816016834821,0.31698406408440977,-0.028069424865742484,0.4045824447055566,0.8009962012346915,-0.04028956340108637,-0.3120975134907853,-0.024209435325204042,0.0,-0.005907521665613,0.2645708175447487,0.45199804219381223,-0.2925148234840738,0.6428850130025866,0.15350460418444084,-0.11373306027684515,0.46825950840215813,0.3775399230431081,-0.23167630554285357,0.23142590104242922,-0.053756559145682364,0.10096237834316038,-0.2021262563455623,-0.13278036918626648,0.4195043892751193,0.24400746126038236,-0.050724536930901946,0.5166017583643727,-0.21116083124165877,-0.4821079760481962,0.7676676640067492,0.1963961642627243,-0.250861499184025,0.4420911816962547,-0.05951164487798789,0.001981185345406594,-7.591863438612006e-06,-0.0029406328204889445,-0.1509399382109216,-0.013024921805523051,0.8738504499020688,0.33310055787025217,0.10284962785005704,0.3736769729314018,0.15963306132340002,-0.011711639604286768,0.07388311692334175,0.3882044255893339,-0.09884506629719607,0.18106664082411447,0.18460102257064104,0.24475970674090053,-0.21488055351347857,0.5365367570476207,0.1877164674026995,-0.21074135024960308,0.7843277638639903,0.5780641710786822,0.5966217517771536,0.4303759950854869,0.3127639772291033,0.42353470746248495,0.02469658288022109,-9.331805572441455e-06,-7.354617706155383e-06,-0.00014163455233897362,-0.0668686523598499,-0.10099783955472882,0.710457559590437,-0.6130493394121005,-0.31245838457628716,0.3374630101881973,-0.3715041623585598,0.14995533633695182,-0.2204812344309432,0.132222973261351,0.25422794548014455,0.06084938638882242,0.24157220393335804,-0.035332602618140266,0.17038869689064504,-0.39210849092232447,0.4385474536493163,0.10480826838571793,-0.1315750686203913,-0.023093999703923142,0.17040258899600816,0.45846242151024474,0.5051118630634894,0.21101339229181088,0.18765008708233694,-1.722794874912264e-05,0.0,0.0,0.016748579754677057,0.18101622580683627,0.5625633584118457,0.6037782142023066,0.24911366010359565,-0.5915781414836542,0.5480591443650003,-0.10290992768113848,0.5270170601203287,0.07769608919654022,0.15842265516014026,-0.1358172360587539,0.4018179292640003,-0.2127460115832619,0.4600955275724325,0.10585998043287273,-0.5286588086165087,0.003049396044421671,0.41343164861401466,0.0818558638798057,0.17247395901726895,0.48081965994364806,0.45463224418608345,0.1679757310399974,0.11157411785430309,0.0,0.0,0.0,-0.0010571023081351989,0.3879788253580766,0.13105614415702935,0.24241303679444806,-0.0400809461140062,0.0666843099382082,0.08399430894817381,0.3261015299790993,0.3812360258095705,0.12842773925291054,0.2242171907010426,0.2992734678531936,0.559545113199992,0.24434548754690955,-0.2589581830120344,0.4714645378397641,0.28972465949475223,-0.055493396369499313,0.23402389094836767,-0.3187185097436514,0.42182849671750144,0.24815642404780255,0.32891868016979015,-0.17929809637417768,-0.006584259506759957,0.0,0.0,0.0,-1.944498494941588e-05,0.374718252760696,0.5147217244322165,0.15476292204331565,-0.00674022328043875,-0.044141040809323656,-0.051889342981296965,0.5645345920004201,0.6436118507950773,0.7804206776188416,0.2985515901947346,0.6425888655823926,-0.24370777497212592,0.8055040037150477,0.8013337878429434,0.42518187434485594,0.6741170903491863,0.7567002902311701,0.2518006967903629,0.6126691616548784,0.8090088663419179,0.7856504951257641,0.5512546318436716,-0.00010084942714453218,-8.296046061199527e-05,0.0,0.0,0.0,0.0,-8.602194576281002e-05,-0.006195729562086479,-0.021929438450511346,-0.19790901548053103,-0.3007708229480059,-0.26826028631822885,-0.1351395443200162,0.12310646973638227,0.6702119690008806,0.7889410641007898,0.3460187402113067,0.0790882498527407,0.8723064130091457,0.3091436188706524,-0.15609832220004996,-0.3020151632622485,0.14390858657734507,0.3036262385484382,0.36214673080873677,0.1308891955593971,-0.0003084682905982795,-0.0006378410412282384,-6.535560910177914e-06,0.0,0.0,0.0,0.0,0.0,0.0,-1.4732892889694396e-05,-9.632987732934399e-05,-0.00037565924958310546,-0.0013301335900544602,-0.0019242676558793284,-0.0022064925555691293,0.02156601312060342,0.05206528700123901,0.042624996968234956,0.002309938840088175,-0.02914417200717064,-0.02047206099737482,-0.02129672934296569,-0.0357285405262974,-0.09498251193594673,-0.05174859294266147,-0.07812914082814541,-0.05177972427185899,-0.037228328441779354,-0.008494114416710772,0.0,0.0,0.0,0.0
